fc1.weight
0.027305
0.029643
-0.008367
0.032808
-0.007825
0.007207
-0.017388
0.020974
0.031484
-0.026201
0.031043
0.006684
0.062840
0.019744
0.025643
0.003273
0.027532
0.005279
-0.016673
0.009104
-0.016455
-0.004188
-0.014506
0.023692
-0.028192
-0.016465
-0.010085
-0.021474
0.003371
-0.035274
0.032254
-0.030338
0.021814
-0.005711
-0.022340
0.000434
-0.022438
0.008394
-0.009713
0.015644
0.062720
0.035565
0.057432
0.135441
0.116831
-0.049129
-0.079565
-0.095909
0.023824
-0.083309
-0.021430
0.002335
-0.027394
0.029305
0.010287
0.014793
0.011295
-0.000621
0.028757
0.099278
0.122829
-0.045358
0.006818
-0.025818
-0.036017
-0.056515
0.028684
0.058832
0.149013
0.085801
0.131772
0.101708
0.206487
0.040884
-0.011757
-0.108403
-0.050280
0.004475
-0.049080
-0.016061
-0.023170
0.014239
0.018949
-0.014436
0.021676
-0.008475
0.147483
0.120125
0.093481
0.042918
0.021819
0.019518
0.019834
0.057804
0.031310
0.134280
0.205551
0.168967
0.063624
0.144016
0.142416
0.080239
0.014719
-0.032842
-0.074721
-0.208784
-0.195880
-0.124871
-0.097464
0.018995
-0.043804
0.006746
0.011006
-0.041059
0.096768
0.035095
-0.091494
-0.128340
0.043746
-0.026157
0.000392
0.022915
0.110848
0.162563
0.079927
0.141080
0.239687
0.149931
0.088723
-0.004910
0.093383
0.002162
-0.135160
-0.177605
-0.231389
-0.227408
-0.246280
-0.107699
0.034971
-0.061678
0.013904
-0.029309
0.162123
0.034767
-0.123125
-0.067837
-0.059202
-0.044911
-0.137411
-0.217716
0.053836
0.058393
0.079888
0.204318
0.255047
0.216063
0.240550
0.131880
0.188682
0.034281
0.003585
0.018191
-0.060812
-0.255616
-0.173198
-0.166425
-0.196924
-0.154891
0.007962
-0.069451
-0.126420
0.005768
-0.123281
-0.197518
-0.167811
-0.283198
-0.267716
-0.042446
0.047950
-0.037379
0.081751
0.153545
0.204633
0.292033
0.380113
0.307486
0.403761
0.190439
0.116197
0.075802
-0.082009
-0.205645
-0.138384
-0.113108
-0.127262
-0.012261
0.000520
-0.062170
-0.028108
-0.074890
-0.135188
-0.225135
-0.148150
-0.197405
-0.127731
-0.084991
-0.183844
-0.097004
0.054781
0.040338
0.088428
0.165477
0.257342
0.197995
0.250449
0.269879
0.212837
0.149812
0.133653
-0.054792
-0.226085
-0.200378
-0.163456
-0.034412
-0.098694
0.097880
-0.015835
-0.012919
-0.045541
-0.242291
-0.237226
-0.108794
-0.037354
-0.088843
-0.107046
-0.037427
-0.061555
-0.048193
0.039329
0.041272
0.178934
0.173518
0.187115
0.180181
0.144023
0.064159
0.202492
0.032644
-0.107923
-0.262385
-0.037223
-0.027681
-0.018537
-0.101735
0.001522
0.047240
-0.059047
-0.261699
-0.099039
-0.051719
-0.031547
-0.100270
0.003515
-0.111436
-0.091808
0.007730
0.055177
0.089393
0.055224
0.054609
0.099946
0.085644
0.121794
0.113565
0.211099
0.105262
-0.001893
-0.037951
0.099161
0.079962
-0.021107
-0.058763
-0.011935
0.009158
-0.251277
-0.185845
-0.049385
-0.077988
-0.091363
-0.120198
-0.122859
-0.116919
-0.146697
-0.150922
0.006154
-0.102986
-0.068205
-0.066497
0.026377
0.091249
0.119152
0.078085
0.134996
0.116124
-0.028128
0.104033
0.037828
0.123832
-0.024754
-0.128196
-0.015341
-0.128077
-0.167019
-0.008675
-0.045989
-0.184220
-0.052312
-0.107786
-0.164018
-0.097435
-0.231177
-0.179112
-0.109482
-0.066996
-0.113877
-0.075757
0.012899
0.097584
0.181855
0.179172
0.242203
0.219386
0.068221
0.074913
0.013397
0.075514
-0.014502
-0.150109
-0.051347
-0.083843
0.086470
-0.016990
-0.209491
-0.187088
-0.087825
-0.068822
-0.073256
-0.187121
-0.288051
-0.272441
-0.029931
-0.008982
-0.039839
-0.018040
-0.009811
0.120411
0.162995
0.143907
0.014231
0.073093
-0.016920
-0.028539
-0.044897
0.084928
0.030864
-0.105418
-0.129109
0.073620
0.099336
-0.079918
-0.163922
-0.027199
-0.025374
-0.011218
-0.079058
-0.120393
-0.139895
0.066603
0.163175
-0.032471
0.023943
-0.066527
-0.008339
0.092755
0.013255
0.024586
-0.138115
-0.174811
-0.108340
-0.043767
0.046292
0.071082
-0.041557
-0.083700
-0.177010
0.024592
0.029353
-0.045070
0.022932
-0.013152
-0.066582
-0.033713
-0.043396
-0.052385
-0.045298
0.064350
0.115940
0.071674
-0.045563
-0.109793
-0.039961
-0.072683
0.029494
0.020768
-0.050508
-0.181758
-0.116749
-0.027993
0.153778
0.072367
-0.065488
-0.047327
-0.216261
-0.064050
0.107262
0.132497
0.077733
-0.007493
-0.008707
-0.084612
-0.034795
-0.014453
-0.025140
0.099610
0.029455
0.089631
-0.033969
-0.050450
-0.071021
-0.119749
-0.056880
-0.040656
-0.116025
-0.171994
-0.022868
-0.073602
0.140528
0.116889
0.027986
-0.053001
-0.048373
-0.067083
0.148639
0.189717
0.119345
0.039686
0.001034
0.045755
0.026722
-0.016966
-0.016166
0.027714
0.026259
-0.019711
0.045697
-0.056581
-0.165295
-0.265356
-0.204366
-0.111911
-0.018210
-0.145228
-0.041072
0.028905
0.127049
0.086274
-0.018507
-0.044757
-0.144449
0.023865
0.130761
0.048032
0.093166
0.068483
0.015023
-0.027266
0.063153
-0.042651
0.050008
0.022081
0.031881
0.042165
0.029654
-0.065158
-0.197331
-0.218837
-0.267263
-0.118393
-0.070862
-0.146998
-0.076637
0.109035
0.237386
0.159243
0.055244
0.011899
-0.251974
-0.052866
0.033645
0.030245
0.089559
-0.005522
0.015485
0.007699
0.051945
-0.041193
-0.086912
-0.066445
0.080108
-0.010692
-0.035561
-0.013607
-0.110222
-0.087223
-0.155777
-0.094581
0.150606
0.117470
0.167822
0.204111
0.110010
0.154763
0.005422
0.039415
-0.176947
-0.175422
-0.062414
-0.121871
0.010808
0.132593
0.107442
0.094623
0.067313
-0.056346
-0.002531
-0.009376
0.028428
0.016940
0.011946
-0.021171
-0.018087
-0.039562
-0.037885
0.008076
0.100152
0.052617
0.129603
0.224088
0.106888
0.214200
0.024383
0.057240
-0.177431
-0.029848
0.085650
-0.014862
0.065009
0.098493
0.079934
-0.001643
-0.040276
-0.070441
-0.021301
0.028029
0.096248
0.059547
0.026234
0.000198
0.036028
0.061345
0.004894
-0.029652
0.158217
0.112840
0.046399
0.173580
0.051463
0.005276
0.017204
0.073565
0.044238
0.169457
0.017791
0.151195
0.155911
0.081481
0.049462
-0.033115
0.037999
-0.048449
-0.075405
-0.033977
0.065272
0.069929
0.043744
-0.054272
0.124119
0.107151
0.023208
0.038944
0.102237
0.110130
0.059659
0.216906
0.103210
0.001306
0.019872
-0.020337
0.107535
0.120012
0.068765
0.228404
0.197113
0.140188
0.114434
0.015481
0.007574
-0.013742
-0.098323
-0.064344
0.054606
0.005853
0.011916
-0.009450
0.092513
0.056666
0.004479
0.031375
0.008097
0.163382
0.172952
0.076879
0.053949
0.023056
-0.034962
-0.017058
0.088642
-0.141655
-0.038536
0.040533
0.007313
0.045341
0.097948
0.065035
0.080240
0.085192
0.068240
-0.004434
-0.006172
0.112496
0.035179
0.046255
0.045385
0.146707
0.066832
0.132564
0.239838
0.166155
0.221766
0.122441
0.099376
0.015843
0.035565
0.018193
-0.101011
-0.193357
-0.069754
-0.070465
-0.216963
-0.102825
0.015689
-0.028187
-0.139172
-0.093364
0.024340
0.063039
0.001038
0.085415
0.030022
0.008921
0.044432
0.020453
0.024050
0.232788
0.134870
0.110153
0.262102
0.165998
0.078916
0.032835
0.021634
-0.016699
0.091703
-0.123184
-0.083111
0.076264
0.004533
0.030527
0.034282
0.030394
-0.065665
-0.020778
0.061973
-0.095905
-0.025650
-0.016016
0.023455
-0.076825
-0.007504
0.030498
0.226048
0.248924
0.166882
0.086400
-0.017202
0.073746
0.090897
-0.029735
-0.034644
-0.018532
0.024448
0.026490
0.109257
0.162468
0.190929
0.241945
0.168990
0.213429
0.272761
0.181809
0.170729
0.164469
0.153500
0.049814
0.118454
0.207728
0.324991
0.178675
0.237363
0.144075
0.189263
0.122895
0.007501
-0.005716
0.032687
-0.021436
0.000281
0.016986
-0.024656
0.034685
-0.043770
-0.037122
-0.036575
-0.024715
-0.016020
0.080455
0.176728
0.169397
0.112149
0.033385
0.212953
0.102394
-0.004531
0.076043
0.111325
0.018036
0.065496
0.098071
0.054176
-0.060952
0.004951
-0.014155
0.009295
0.013469
-0.018812
-0.035414
0.018694
0.008519
-0.018164
0.034418
-0.016152
0.024134
0.018119
-0.029943
0.023034
-0.032838
0.020327
0.033886
-0.032486
0.026645
-0.007164
0.014185
-0.031890
0.020560
-0.011099
-0.027167
0.005222
0.017302
0.030907
-0.021814
-0.017575
0.006867
0.009688
0.013731
0.019603
-0.008098
0.023323
0.018310
-0.077037
-0.039147
-0.011773
0.022629
-0.051977
-0.048783
-0.063557
-0.026606
-0.019694
-0.106672
-0.129537
-0.078883
0.091517
0.047488
-0.059313
-0.029722
-0.103509
-0.047865
-0.023948
-0.002976
0.007706
-0.019586
0.010303
-0.034872
-0.026655
-0.147465
-0.119453
-0.018966
-0.045052
-0.068166
-0.018119
-0.065695
-0.207412
-0.168544
-0.208676
-0.157230
-0.182191
-0.180849
-0.206870
-0.077928
0.010501
0.174625
0.091855
0.069554
0.015641
-0.145403
-0.008529
0.016941
0.027672
0.010791
0.002239
-0.030042
-0.115943
-0.113340
-0.104276
0.012422
-0.098862
-0.173601
-0.131773
-0.079296
-0.075777
-0.176250
-0.011676
-0.121144
-0.106971
-0.075822
-0.045312
0.060423
0.138369
0.101338
0.091843
0.072874
0.041204
-0.089403
-0.122540
0.008951
0.197826
0.011134
-0.012682
-0.006797
-0.112158
0.028064
0.126921
0.012142
-0.073096
-0.139022
-0.100944
-0.084123
-0.144195
-0.037919
0.028736
-0.068322
-0.200239
-0.055660
0.071098
0.092286
0.071069
0.054922
0.057324
0.093920
0.182903
0.134675
0.106719
-0.131523
-0.106287
0.035733
0.034821
-0.010993
-0.093171
-0.025215
-0.108319
-0.088533
-0.046032
-0.057102
-0.055670
0.028892
-0.052360
-0.045445
-0.040308
-0.050491
-0.086917
-0.069113
-0.126546
-0.067236
-0.055916
0.044180
0.029816
0.021495
0.048408
0.077858
0.063203
-0.124754
-0.128620
0.010709
0.027994
-0.042584
0.177029
0.041013
-0.045381
-0.007399
0.025041
0.018416
0.054680
0.045783
0.030176
0.050363
0.002204
0.034181
-0.011629
-0.037153
0.012207
0.058458
0.056728
0.025469
0.048045
0.058879
0.103581
0.007425
-0.099621
-0.113651
-0.030881
0.000094
0.010581
-0.007458
0.075402
0.138548
-0.039371
0.034303
-0.041990
-0.000661
0.003477
0.035262
0.043583
-0.005270
-0.005612
-0.073027
0.022456
0.032138
0.109609
0.146624
0.092256
0.014475
0.107289
0.007327
0.006619
0.012652
-0.028192
0.021270
0.000257
-0.056683
-0.124709
-0.019864
0.046558
-0.003614
0.015079
-0.042789
-0.034779
0.057928
-0.000487
0.039330
-0.004384
0.009161
-0.087985
-0.057994
0.035766
0.052546
0.098611
0.059327
0.108841
0.040977
0.085908
0.008180
0.061235
0.010334
-0.027635
0.042183
-0.027285
-0.058113
0.015267
0.165062
0.042381
-0.006419
-0.071265
-0.085344
-0.038603
0.037794
-0.021874
-0.032997
-0.054427
-0.083860
-0.009315
0.013720
0.096592
0.071904
0.045464
0.072979
0.126865
0.082251
0.073597
-0.007323
0.023025
0.004191
0.016927
0.024695
-0.096303
-0.080623
-0.031658
0.124391
-0.000465
0.054178
-0.026582
-0.153620
-0.077470
-0.011046
0.029339
-0.012791
-0.142870
-0.082635
-0.088709
0.007497
0.067833
0.150507
0.165516
0.108902
0.046659
0.005450
0.077607
0.088404
0.048927
-0.038662
-0.097767
0.011533
-0.182333
-0.046287
-0.036612
0.054241
0.147272
0.089648
-0.123494
-0.178574
-0.113335
-0.031221
0.007675
-0.023101
-0.046581
0.103612
0.055075
0.146537
0.206710
0.273676
0.175917
0.175593
0.043822
-0.022608
0.027673
0.022753
-0.104401
-0.177868
-0.367279
-0.179031
-0.126318
-0.010196
-0.023837
0.029882
0.098244
-0.013231
-0.079761
-0.220150
-0.051162
0.021674
0.047548
0.012553
0.078531
0.167045
0.076083
0.073909
0.236073
0.223814
0.159220
0.142197
0.069457
-0.007488
-0.041167
-0.087654
-0.070089
-0.210400
-0.504736
-0.307937
-0.236942
0.010719
0.013576
0.107801
0.080598
0.006496
-0.004572
-0.079362
-0.070337
-0.005740
0.027016
0.050717
0.054199
0.063186
-0.082930
-0.029159
0.085277
0.145939
0.071559
0.116247
0.045569
0.008350
-0.027705
0.054557
-0.110496
-0.295454
-0.411800
-0.271706
-0.224744
-0.064974
-0.073811
0.066883
-0.035690
-0.040718
0.023762
-0.059773
-0.115487
-0.071333
0.056264
0.081909
0.067080
-0.025490
-0.083760
-0.043371
-0.058665
0.094957
0.073304
0.039088
0.007843
0.020840
0.082785
0.112474
0.007020
-0.131547
-0.192702
-0.174753
-0.202777
-0.030993
-0.101151
0.000807
-0.080099
-0.109602
0.021741
-0.095439
-0.048904
-0.042143
0.059659
0.067047
0.022407
0.039881
-0.049181
-0.092947
-0.037018
0.031840
-0.052218
0.040575
0.074652
0.050479
0.115097
0.048679
0.152227
0.094936
-0.213378
-0.293128
-0.067773
-0.074150
0.028777
0.045077
0.036582
-0.186767
-0.039176
-0.028366
-0.042492
0.044468
0.052505
0.009383
-0.006518
-0.017650
0.047609
-0.025740
-0.034380
0.020709
-0.053591
0.047677
0.106753
0.045289
0.030326
-0.016384
-0.042365
-0.074437
-0.283339
-0.342531
-0.230950
-0.094521
0.008392
0.079191
-0.026134
-0.129668
-0.034772
-0.020187
-0.123422
-0.024343
-0.030420
-0.009516
-0.052498
-0.036154
-0.036107
0.051357
0.011871
0.085306
0.080789
0.086996
0.096416
0.089841
-0.038550
-0.008632
-0.084703
-0.099820
-0.219294
-0.150874
-0.223679
-0.121506
0.119517
0.048127
0.144953
-0.077607
-0.063835
-0.084638
-0.080345
-0.062480
-0.053943
-0.059570
-0.029766
0.000337
-0.073394
-0.027118
-0.009753
0.103119
0.036184
0.034106
0.000867
-0.055886
-0.062274
-0.087289
-0.281643
-0.316489
-0.402460
-0.177262
0.010466
-0.054793
0.008302
0.231966
0.079305
-0.008714
-0.063294
-0.006133
-0.041027
-0.069549
-0.156621
-0.192583
-0.067507
-0.046985
-0.067864
-0.034429
-0.028399
-0.012948
0.020555
0.012714
-0.041021
-0.052517
-0.156413
-0.211550
-0.333114
-0.421572
-0.282654
-0.132269
-0.042244
-0.049643
0.002846
0.143252
0.031522
0.060954
-0.100358
-0.088269
-0.036020
-0.089284
-0.087460
-0.110849
-0.042447
-0.089647
-0.092545
-0.034511
-0.054325
-0.040665
-0.008264
0.081772
-0.067250
-0.193277
-0.208847
-0.254433
-0.325379
-0.296305
-0.035389
-0.035373
-0.004696
0.045219
-0.003913
-0.049825
0.028096
-0.000312
0.021955
-0.121856
-0.049067
0.026062
-0.008065
-0.094177
-0.009575
-0.083351
-0.011410
-0.072396
-0.102831
-0.004298
0.080261
0.005368
-0.173763
-0.307111
-0.242321
-0.241107
-0.273477
-0.220562
-0.079265
-0.019514
-0.049553
-0.029343
-0.003315
-0.029001
-0.111262
-0.083918
-0.056400
-0.084380
-0.019336
0.044710
0.038290
0.021280
0.020558
-0.002994
-0.047635
-0.071759
-0.029348
0.064466
0.008556
-0.043355
-0.215115
-0.244018
-0.260275
-0.225471
-0.251547
-0.176129
-0.036013
-0.057120
-0.088814
-0.010942
-0.013552
-0.013214
-0.073447
0.047560
0.015421
0.105749
0.059805
0.144457
0.054181
0.002338
0.007963
0.020881
-0.083790
-0.064885
0.013385
-0.013393
-0.172791
-0.142693
-0.212955
-0.250920
-0.300440
-0.236756
-0.184827
-0.131706
-0.090625
-0.070155
-0.048784
-0.026536
0.008328
0.012965
0.100800
0.183769
0.207772
0.360838
0.345963
0.229474
0.050112
0.000468
0.094684
-0.019802
-0.033574
-0.009050
-0.072837
-0.037076
-0.010990
-0.036510
-0.246646
-0.109952
-0.031750
-0.011590
0.024837
0.044023
-0.109661
-0.110300
-0.099524
-0.022575
-0.008000
-0.012954
0.004253
0.062997
0.175750
0.331390
0.168034
0.254993
0.269735
0.193933
0.170258
0.161314
0.063664
0.093860
0.141789
0.136549
0.164668
-0.007831
0.037087
0.151191
0.271378
0.135603
0.206503
0.193457
0.058967
-0.056966
-0.100110
0.030647
0.017045
0.023461
0.004717
0.063506
0.072005
0.149418
0.250118
0.206439
0.204141
0.282713
0.324573
0.282166
0.016148
0.064941
0.251444
0.215152
0.156677
0.093231
0.245023
0.217157
0.221473
0.223246
0.123721
0.118057
0.034010
-0.005749
-0.018438
-0.011484
-0.012734
0.034166
0.013699
0.035147
0.017269
0.016747
0.074781
0.130517
0.104261
0.097435
0.169647
0.054430
0.025125
0.059515
0.211228
0.130042
0.055358
0.113656
0.225039
0.166688
0.135561
0.200759
0.144298
0.059171
-0.002817
-0.010606
-0.000131
0.011464
-0.000785
0.001653
0.004525
0.013301
-0.010836
-0.021296
0.008426
-0.004229
-0.016180
0.014999
0.000324
-0.005195
0.004703
0.016437
-0.038762
0.000348
0.000536
0.021673
0.002306
0.002855
0.009729
0.027176
-0.016877
0.021322
0.008734
-0.023826
0.012435
-0.021419
-0.011242
-0.017024
-0.024297
0.028128
-0.029028
0.031183
0.018949
0.049787
0.089462
0.081724
0.041801
0.066094
0.089025
0.116517
-0.024528
-0.008664
-0.006362
0.020743
0.091433
0.040143
0.071505
0.073139
0.071128
0.026905
-0.027189
-0.009054
0.018422
0.014153
0.029546
-0.007311
0.019333
0.002189
0.060484
0.026952
0.074865
0.050155
0.085572
0.106867
0.079130
0.077572
-0.005758
0.076912
-0.014709
-0.089055
-0.107900
0.037911
0.117949
0.180792
0.059563
0.059489
0.139058
0.115584
0.004694
-0.049054
-0.001212
-0.015870
0.011755
-0.020055
-0.097875
0.036292
0.047222
-0.091557
-0.005882
0.009493
0.107426
0.107833
0.149455
0.063434
0.009613
0.099523
0.075657
0.032651
0.003579
0.038229
0.185522
0.286956
0.274793
0.275114
0.152984
0.116336
0.104797
0.002827
0.236056
-0.011079
-0.010558
0.003710
-0.089583
0.010039
-0.089232
-0.129064
-0.111428
0.018997
-0.025061
-0.014498
-0.067291
-0.056647
-0.087131
0.003866
-0.063121
-0.049538
-0.022656
0.080715
0.140993
0.108586
0.101886
0.160111
0.192480
0.089509
0.011524
0.123395
0.190085
0.047185
0.001125
0.026239
-0.088356
-0.119288
-0.256020
-0.127452
-0.130366
-0.099291
0.008304
-0.089547
0.059060
-0.082938
-0.100131
0.044230
-0.050920
-0.068774
0.056654
0.151567
0.198666
0.181745
0.215095
0.115162
0.085694
0.141931
0.115369
0.106649
0.029080
-0.057861
0.008366
0.039726
0.040030
-0.187734
-0.224244
0.008425
-0.061179
-0.033654
-0.030816
-0.090454
-0.032592
-0.015755
-0.009287
0.088278
0.172772
0.207494
0.214526
0.223401
0.225540
0.191643
0.268960
0.085465
0.069232
-0.008679
0.189542
0.123518
0.038449
-0.012332
-0.032436
0.080443
0.014610
-0.093224
-0.303430
-0.059515
0.019959
-0.016807
-0.083136
-0.101024
-0.022835
0.031277
0.058633
0.083537
0.236798
0.222290
0.262187
0.188986
0.234817
0.173529
0.179032
0.071500
-0.019165
0.007753
0.052711
0.044064
0.083059
0.018278
-0.005624
0.050740
0.084028
-0.018577
-0.172409
-0.080348
-0.036271
-0.109278
0.004227
-0.085467
-0.016964
0.005902
0.042620
0.031932
0.117022
0.119196
0.226646
0.105420
0.112519
0.003994
0.039129
0.034113
-0.045106
0.056518
0.084756
0.110877
0.009540
0.031740
-0.037730
0.029528
0.090439
-0.093639
-0.071270
-0.174706
-0.040658
-0.071244
0.084256
0.042026
0.018729
0.001556
-0.003839
-0.039360
-0.004417
-0.017124
0.010591
-0.055983
-0.038968
-0.175355
-0.163153
-0.089493
-0.099677
-0.066219
0.100600
0.189921
0.012454
-0.004104
0.012701
-0.025198
0.055930
-0.067423
-0.111538
-0.048184
-0.012641
0.060034
0.100640
-0.014290
-0.048786
-0.028985
-0.055675
-0.112227
-0.129333
-0.208719
-0.240622
-0.189718
-0.216817
-0.271312
-0.224853
-0.202576
-0.144431
-0.016671
0.142730
0.066331
0.018137
-0.029308
-0.037685
-0.030488
-0.035012
-0.142173
0.010094
-0.086822
0.047462
0.032639
0.099875
-0.028168
-0.021253
-0.068933
-0.034572
-0.034383
-0.176449
-0.226306
-0.204309
-0.120949
-0.160546
-0.238433
-0.236522
-0.213023
-0.175645
-0.142210
0.013896
-0.107365
-0.045368
0.038084
0.019109
-0.024305
-0.034530
-0.182617
0.056497
-0.041619
-0.016837
0.037544
0.059016
-0.057280
0.021893
0.039713
0.038291
0.022288
-0.070340
-0.213962
-0.173427
-0.120452
-0.074303
-0.118225
-0.044531
-0.145065
-0.192916
-0.178764
-0.191617
-0.264173
-0.237286
0.014060
-0.030303
-0.000082
-0.063538
-0.164312
0.148773
-0.092332
-0.025384
0.055308
-0.022283
0.002025
0.089704
0.016075
0.083859
0.062159
-0.068504
-0.199657
-0.121969
-0.087620
-0.074765
-0.007910
-0.010830
-0.039930
-0.024786
-0.018844
-0.112562
-0.249861
-0.205770
-0.007227
0.099975
0.012035
-0.135330
-0.176522
0.019545
-0.067319
-0.100661
0.025672
-0.027424
0.014106
0.068240
0.024207
0.024706
-0.019185
-0.061402
-0.072729
-0.114999
-0.065113
-0.027438
-0.034074
0.059084
0.036570
0.086022
0.135019
0.010741
-0.129026
-0.114814
0.007305
0.083436
0.012613
-0.216151
-0.235606
0.002527
-0.044966
-0.097836
-0.028090
-0.053629
-0.037876
0.004500
0.018755
0.033771
-0.090535
-0.085553
-0.091490
-0.050916
-0.060720
-0.030965
-0.016920
0.057062
0.027135
-0.062746
0.043076
0.100490
-0.030928
-0.137758
-0.098519
0.009970
-0.009627
-0.083154
-0.103107
0.000503
-0.097484
-0.091733
-0.121227
-0.097751
-0.067997
0.007962
0.087935
0.041319
-0.025520
-0.072598
-0.078119
-0.084832
-0.056145
-0.039485
-0.030837
-0.023439
-0.061863
-0.034026
-0.045401
0.044305
-0.029693
-0.206519
-0.066321
0.010388
0.010032
-0.109303
0.002812
0.020080
-0.056745
-0.134504
-0.144624
-0.165284
-0.191635
0.004182
0.065735
-0.052244
-0.186500
-0.217521
-0.064243
-0.056575
0.007780
0.045728
-0.014512
-0.000883
-0.038013
-0.045577
-0.164897
0.002677
-0.013572
-0.192815
-0.076062
-0.031275
0.028370
-0.110809
-0.069289
0.097646
-0.099333
-0.088368
-0.089349
-0.177056
-0.136810
-0.078207
-0.125907
-0.193996
-0.233594
-0.175110
-0.014804
0.079696
0.057064
0.057578
-0.021169
0.010175
0.064092
-0.007698
-0.056796
0.059141
-0.010182
-0.106935
-0.132117
0.014967
0.048970
0.114998
0.030003
0.089962
-0.020115
0.031529
0.011544
-0.037709
-0.100350
-0.039567
-0.020121
-0.059547
-0.035541
0.021040
0.074606
0.112597
0.104846
0.067740
0.039556
0.049260
0.112007
0.082769
0.056953
0.083557
-0.073406
-0.106978
-0.041830
0.026242
0.090259
0.148206
0.093218
0.128891
0.191480
0.062047
0.054642
0.058236
0.004346
0.089511
0.165674
0.240732
0.169899
0.136562
0.137838
0.108054
0.129657
0.055275
0.029968
0.057974
0.049193
0.072404
0.017831
0.070341
-0.060971
-0.079185
0.057434
0.014288
0.030418
0.065540
0.092193
0.191154
0.103958
0.073115
0.099172
0.170777
0.063997
0.105998
0.202686
0.330559
0.281606
0.209410
0.122259
0.087798
0.025594
0.030046
0.003327
0.089250
0.104872
0.051960
0.130953
0.097016
-0.106372
-0.109337
-0.033144
-0.006477
0.002474
0.069309
0.194952
0.055112
-0.042243
-0.018457
0.026063
0.132913
0.153265
0.146187
0.178923
0.236927
0.145266
0.145612
0.139397
0.130563
0.035278
-0.049323
0.000037
0.055389
0.033048
0.051775
0.134562
-0.054575
-0.181727
-0.089539
0.009864
-0.004432
0.028819
0.104545
0.208151
0.125152
0.124764
0.062739
0.050250
0.123281
0.140536
0.166276
0.159206
0.068680
0.080477
0.110599
0.061458
-0.024106
-0.053316
-0.090869
-0.046257
0.048595
0.001729
0.060688
-0.082699
-0.093003
-0.176629
-0.076538
-0.033624
0.001393
-0.009970
-0.014575
0.077378
0.174313
0.098397
0.170806
0.135837
0.159985
0.222144
0.137581
0.104446
0.141971
0.098512
0.093185
0.026030
-0.050984
0.064435
0.187384
0.043666
0.044909
-0.000795
0.048729
-0.084376
-0.001674
-0.024726
-0.024274
-0.033998
0.029589
0.034776
0.086835
0.127518
0.205288
0.267457
0.155300
0.060741
0.073647
0.201269
0.198115
0.098377
0.120463
0.134422
0.018088
0.010115
0.023680
0.142915
0.216628
0.104537
-0.065348
-0.085672
0.140038
0.063820
-0.007382
-0.003302
0.022370
0.020935
0.017780
-0.015771
-0.033763
0.004758
0.036684
0.082470
-0.016509
-0.172340
-0.150343
-0.104158
0.046806
0.008702
0.057816
0.177292
0.042226
0.028891
0.200179
0.246590
0.131241
0.042417
-0.065101
-0.094725
0.031123
-0.027185
0.003805
-0.018244
0.035049
0.029029
0.020745
0.002003
-0.011563
0.009110
-0.020426
-0.020892
-0.011579
-0.011730
-0.025246
0.023473
0.043333
0.029294
0.066703
-0.016248
-0.005593
-0.014915
0.006607
-0.030193
-0.042354
-0.028634
-0.000477
0.001333
-0.013804
-0.023467
-0.013896
-0.012676
-0.018839
0.005852
0.010030
0.027348
-0.008068
0.002557
0.023082
0.015535
0.004589
0.010974
0.001854
-0.030635
0.001377
-0.007806
0.100646
0.098306
-0.001329
0.023863
-0.018394
0.031042
0.030749
-0.001365
-0.028661
-0.011525
-0.009551
0.000590
-0.032380
0.006619
-0.014853
-0.009144
-0.018446
-0.007540
-0.033169
-0.018935
0.006827
0.038078
0.097372
0.043524
0.103408
0.036343
0.056328
0.132516
0.138700
0.116492
-0.157355
-0.136138
-0.008825
0.140948
0.114606
0.164609
0.161116
0.069821
0.100467
0.095009
0.011688
-0.013763
0.024587
-0.022187
-0.029096
0.007795
-0.017668
0.125921
0.152758
-0.003165
0.049538
0.135530
0.036443
0.111784
0.153822
0.171162
0.062479
0.087865
0.062353
-0.020201
-0.096320
0.017446
-0.016899
-0.001005
0.062417
0.099177
0.151103
0.155163
0.012114
0.002636
-0.020870
0.028124
0.003919
0.008699
-0.094603
0.124428
0.167789
0.008383
0.104767
0.099916
0.107005
-0.066928
0.023006
-0.010332
-0.119282
0.124371
0.125812
0.098035
0.097999
0.121993
0.080056
0.027956
0.055312
-0.014909
0.028086
0.140579
0.205919
-0.032273
0.035919
0.031020
0.003915
-0.014895
-0.094427
-0.033882
0.022365
-0.106697
-0.019242
-0.013262
-0.069950
0.012067
-0.045816
-0.139713
-0.159300
-0.139386
-0.036525
-0.038510
0.008399
0.101844
0.031298
-0.021308
0.022288
-0.015521
0.050820
0.082157
0.010236
0.095040
0.090629
0.198187
0.007049
-0.013786
-0.135179
-0.097213
-0.043346
-0.231986
-0.009819
0.010320
0.055127
-0.031619
-0.089826
-0.071020
-0.066582
0.027683
0.029721
0.004616
-0.051489
0.026950
-0.020477
0.079315
0.000908
-0.014649
-0.072092
-0.133970
-0.091805
0.073773
0.159600
0.154198
0.025879
-0.127436
0.120220
0.085691
-0.057791
-0.056834
-0.008047
0.040336
0.046645
-0.034414
0.018530
-0.010788
0.068995
0.064636
0.097082
0.147236
0.082564
0.094860
0.035388
0.028731
0.026620
0.050696
-0.082096
-0.089189
-0.087038
0.003021
-0.123185
-0.079701
-0.035010
-0.033925
0.188648
0.041430
-0.001200
-0.089104
-0.075966
-0.077554
-0.084502
0.016523
0.057019
0.029997
0.065986
0.094900
0.071085
0.118655
0.038459
0.051350
0.013019
0.006076
0.013748
0.009302
-0.065115
-0.002682
0.054402
-0.024975
-0.171633
-0.106813
-0.009495
0.085702
0.015991
0.028386
0.010143
0.007774
0.045590
-0.043474
0.002564
0.101596
0.087704
0.136529
0.153747
0.051299
0.041182
0.049096
0.112304
0.024361
-0.002977
-0.034512
-0.006074
-0.023192
-0.007417
0.025132
-0.020703
-0.192656
-0.017949
0.074727
0.010596
0.200048
-0.111129
0.052696
0.029954
0.110081
0.112007
0.055668
0.065752
0.054803
0.093335
0.100135
0.122388
0.146326
0.121624
0.007458
-0.004082
0.001826
-0.016054
0.036902
0.011957
0.002842
-0.011389
0.108365
0.104432
-0.108078
-0.091748
0.064857
0.045933
0.113796
-0.014390
-0.050314
0.093780
0.083740
0.084541
0.080854
0.014542
0.065894
0.074208
0.071981
0.068647
0.173489
0.113973
-0.022600
0.004632
-0.001618
0.063572
0.037597
0.088963
0.009816
0.055904
0.109429
0.010568
-0.279714
-0.161863
0.033992
-0.010391
0.057583
0.050919
0.004760
-0.053281
-0.006780
0.077441
0.157519
0.122135
0.043947
0.006131
0.097447
0.029018
0.124913
0.079283
-0.050424
-0.079510
-0.034792
-0.017555
-0.007010
0.158147
0.172055
0.206000
0.146718
0.090576
-0.263273
-0.126008
-0.008414
-0.016779
0.056260
0.132029
0.142285
0.068126
0.118006
0.147834
0.091291
0.079835
0.008093
-0.096435
-0.086055
-0.058485
-0.008236
-0.031401
-0.033307
-0.071037
0.025979
-0.006309
0.031355
0.119267
0.229010
0.329366
0.442059
0.494549
0.127737
-0.018174
0.012752
0.006583
0.069419
0.095095
0.109335
0.081909
0.043363
0.052715
0.040060
0.001318
-0.025800
-0.006791
-0.074987
-0.093687
-0.030216
-0.029034
-0.007483
-0.018133
-0.008832
-0.004614
0.029525
0.110517
0.133677
0.165588
0.309733
0.353597
0.041826
-0.136124
0.052982
-0.073612
0.007156
-0.029937
-0.002933
-0.042037
0.015610
0.108985
0.058902
0.016317
0.034189
0.100256
0.052930
-0.017503
0.031010
-0.061461
-0.064793
-0.063559
0.007053
0.002317
0.099878
0.109252
0.132751
0.061383
0.093913
0.067290
0.105261
-0.131089
0.067957
-0.119685
-0.042777
-0.237653
-0.235385
-0.034789
0.084971
0.021978
0.042648
0.004738
0.022768
0.069339
0.024488
-0.014035
-0.040030
-0.124100
-0.034674
-0.150062
-0.010225
0.088809
0.093560
0.140020
0.096472
0.124973
0.026051
0.076573
0.177645
-0.227022
-0.060073
0.037879
-0.003370
-0.086328
-0.429474
-0.006106
0.032045
0.081874
0.116179
0.190455
0.172086
0.159016
0.098045
-0.019470
-0.126554
-0.121549
-0.035260
-0.006355
0.010208
0.027849
0.058697
0.036550
-0.067522
0.016740
0.011791
-0.067703
0.048711
-0.100712
-0.061281
0.034243
-0.066482
-0.135100
-0.329111
-0.173379
-0.042533
0.016468
0.134167
0.221616
0.195080
0.181112
0.152965
0.077062
-0.082405
-0.033214
0.028094
0.048966
0.040454
0.036268
0.006950
0.023406
0.019993
-0.002472
0.051477
0.020321
0.065956
-0.149038
-0.076549
0.127156
-0.054546
-0.133772
-0.304580
-0.222230
-0.118023
0.037768
0.080573
0.039806
0.133257
0.207156
0.142367
0.050268
-0.053563
-0.039988
0.075757
0.063755
0.099900
-0.013110
-0.033770
-0.016273
-0.027958
0.005667
-0.012868
-0.021977
0.032717
-0.127623
-0.263990
-0.038944
0.248014
-0.075332
-0.292548
-0.199979
-0.084571
-0.061972
0.060773
0.045561
0.037844
0.123266
0.095865
0.116525
-0.067425
0.005332
-0.053784
-0.049203
0.014863
-0.075401
-0.021087
-0.005361
-0.065285
0.026937
0.008091
0.024634
-0.020542
-0.163347
-0.204571
0.001346
0.120056
-0.090068
-0.197453
-0.209722
-0.025804
-0.095365
0.014527
0.017779
0.006780
0.057582
-0.010182
0.016493
-0.005728
-0.037063
-0.016608
-0.080414
-0.041412
-0.097125
-0.034380
-0.085254
-0.008937
-0.078770
-0.037381
0.021175
0.119419
-0.159490
-0.033454
-0.045140
0.040183
-0.124775
-0.079162
-0.104526
-0.114594
-0.005421
0.050340
-0.002987
0.072655
0.044221
0.030411
0.073456
0.049650
0.007497
0.012694
-0.055831
-0.046848
-0.072873
-0.122253
-0.115455
-0.149562
-0.127101
-0.108306
-0.087005
-0.025755
-0.118698
-0.029653
-0.049318
-0.023595
-0.022883
-0.200508
-0.111972
-0.120708
-0.001329
0.061500
0.027353
0.027718
0.087050
0.082061
0.149200
0.139909
0.084784
0.090055
0.003984
-0.056040
-0.139841
-0.238329
-0.223566
-0.222200
-0.209879
-0.103989
-0.052594
0.036118
-0.177430
-0.025171
-0.019632
0.024650
-0.146019
-0.270100
-0.203938
-0.108934
-0.014476
-0.012063
0.074780
0.020859
0.024142
0.035507
0.018003
0.063060
0.038136
0.057350
0.009638
-0.074319
-0.111128
-0.197419
-0.187856
-0.168217
-0.020628
0.131281
0.087445
0.078295
-0.145945
-0.023881
0.008148
-0.004576
0.017100
-0.105733
-0.153272
-0.018923
0.032502
-0.031384
0.041570
-0.076862
0.035888
0.020498
0.040007
0.042067
0.004195
0.050638
0.120025
-0.056709
-0.139860
-0.063131
-0.090026
-0.100705
-0.027285
0.105716
0.025591
-0.173217
-0.091128
0.029264
0.030533
0.003185
-0.021250
0.071081
-0.058359
-0.036279
-0.061144
0.051808
-0.000944
-0.065840
-0.012734
0.024870
-0.024649
-0.050883
0.068728
0.025252
0.131583
0.085197
-0.027958
0.053872
0.069360
0.077287
-0.005964
-0.054683
-0.026561
-0.033341
-0.086136
-0.017586
0.001132
0.006517
-0.009965
0.028509
0.089424
0.122513
0.217157
0.357718
0.338848
0.367802
0.350069
0.273520
0.210847
0.190395
0.238013
0.121932
0.096877
0.227521
0.297063
0.223421
0.172789
0.179423
0.217004
0.168473
0.053446
0.032694
-0.010225
0.031848
-0.007970
-0.021541
-0.015466
0.002222
-0.005905
0.018888
0.110873
0.142563
0.135876
0.181483
0.171583
0.119371
0.088765
0.131734
0.347538
0.184939
0.178255
0.173283
0.276297
0.156728
0.139416
0.145146
0.096864
-0.007897
0.028055
-0.018595
-0.003069
-0.016859
0.014856
-0.012556
0.010895
0.002134
-0.023445
-0.024011
-0.034883
-0.019978
0.009977
0.002176
0.026861
-0.031404
-0.017065
-0.048114
0.000281
0.013015
-0.032037
0.031541
-0.011093
0.031644
-0.005995
0.020261
0.032467
-0.013003
-0.008682
0.018733
-0.030576
0.021140
-0.022433
0.033170
-0.023406
-0.014697
0.026649
-0.025959
-0.027658
-0.030242
-0.044518
-0.074014
-0.032930
-0.032063
-0.047121
-0.087069
-0.015160
-0.041999
-0.068515
-0.061500
0.001695
-0.039876
-0.014959
-0.031567
-0.006240
-0.005417
-0.004947
-0.012132
-0.030925
0.022453
-0.022491
0.020816
-0.012995
0.060161
0.067864
-0.033226
-0.032256
-0.075828
-0.155046
-0.105629
-0.084882
-0.083148
-0.239233
-0.262087
-0.242313
-0.224194
-0.158581
-0.083584
0.137119
0.169544
0.040199
-0.031305
-0.005507
0.015121
-0.004980
0.054251
-0.018354
-0.006161
-0.014268
0.018562
0.006817
-0.029537
-0.103456
-0.072804
-0.001459
-0.086018
-0.077436
-0.113908
-0.071170
0.053286
0.061940
0.066825
0.098612
0.104555
0.138869
0.194962
0.126369
0.101375
0.191033
0.047369
-0.054979
-0.082316
0.009695
-0.018005
0.055448
-0.022398
0.026968
0.011420
0.022678
0.019992
-0.004048
0.064679
0.062520
0.032036
0.061762
-0.023332
0.050752
0.199149
0.216987
0.148668
0.220271
0.231933
0.191146
0.116948
0.151096
0.020197
-0.091004
-0.056687
-0.125105
-0.149788
0.054156
0.087242
0.055490
0.036758
-0.030302
0.015581
0.004048
0.037826
0.024588
0.149316
0.083104
0.061237
0.047087
0.026433
0.088242
0.170268
0.121985
0.124513
0.083837
0.074188
0.193163
0.196711
0.192650
0.118083
-0.030669
-0.123505
-0.164762
-0.268692
-0.165583
0.052792
0.126976
-0.036730
-0.010227
0.107861
-0.048704
-0.100352
-0.015969
0.124992
0.099926
0.002148
0.062578
0.018091
-0.049378
-0.063150
0.004881
0.090909
0.012152
-0.008791
0.027381
0.016460
-0.011868
0.033858
-0.028962
-0.051782
0.001417
-0.002234
0.072762
0.019883
0.066811
-0.030386
-0.008673
0.064077
-0.204249
-0.020035
0.102511
0.163651
0.134023
0.098428
0.100767
0.015594
-0.048318
-0.104183
-0.079347
-0.004778
-0.027530
0.005591
-0.027088
-0.004684
0.079014
0.047883
0.001497
-0.029845
-0.020157
0.104649
0.209453
0.275572
0.051855
0.043502
0.007219
-0.154978
-0.010025
0.062460
0.016947
0.073601
0.031450
0.078309
0.063851
0.017142
-0.010120
-0.091762
0.003935
0.000622
0.032718
0.048134
0.097361
0.089701
0.229856
0.108062
0.167152
0.127517
0.109497
0.137647
0.244718
0.255795
0.100368
0.102723
-0.023881
-0.069663
0.100565
0.006286
0.023852
0.005830
0.015363
-0.035283
0.018681
0.028072
-0.052734
-0.094334
-0.029707
-0.037626
-0.030898
-0.090329
0.087616
0.154922
0.195368
0.137207
0.255872
0.193643
0.049018
0.104942
0.048068
0.131071
0.159441
0.062163
0.016447
-0.053736
0.049626
0.071604
0.062113
0.035505
0.008110
-0.072340
0.009580
-0.023436
-0.016077
-0.085528
0.020998
-0.131384
-0.133292
-0.187287
-0.005618
0.123986
0.160572
0.091613
0.214981
0.126911
0.087937
0.030314
0.087219
0.058166
0.152045
-0.061401
0.018738
-0.027276
-0.080484
0.005804
0.010818
-0.082671
-0.014864
-0.166194
-0.091791
-0.024817
0.024272
-0.011988
-0.014477
-0.052901
-0.071941
-0.193935
-0.141102
0.005324
0.101316
0.129811
0.052984
-0.062626
-0.155029
-0.147874
-0.056319
0.073411
0.181147
-0.041484
-0.018098
-0.048047
-0.081562
0.056733
-0.093948
-0.070652
-0.074917
-0.083537
-0.043528
-0.041700
0.117405
0.050019
0.102026
0.125622
0.025531
-0.112167
-0.085427
-0.026767
0.063388
0.110184
0.000221
-0.151297
-0.286456
-0.303933
-0.155416
-0.050049
0.072809
-0.032531
-0.032901
-0.048718
-0.148189
0.094094
-0.060810
-0.029070
-0.020194
-0.009830
0.018343
0.064637
0.051833
0.107263
0.114806
0.143518
0.052625
-0.043550
-0.090796
-0.011037
0.138259
0.051571
-0.054326
-0.097209
-0.219100
-0.134981
-0.174334
-0.090513
0.060372
-0.077483
0.068202
0.002961
-0.111715
-0.029256
0.037192
-0.034116
-0.053101
0.008652
-0.052539
-0.039992
0.013664
0.027014
0.087148
0.053521
0.073082
0.040292
-0.071273
0.011405
0.088914
0.009544
-0.108205
-0.054465
-0.162457
-0.033111
-0.136921
-0.205473
-0.178403
-0.062602
0.047664
0.028873
0.176147
-0.071468
0.003781
-0.152241
-0.132963
-0.043974
-0.152749
-0.126389
-0.106539
-0.029653
0.008478
0.023650
-0.003804
-0.007989
-0.037822
-0.058992
-0.022931
0.045819
-0.023216
-0.041631
-0.020558
0.095335
-0.017123
-0.252560
0.042916
0.032847
-0.046356
0.026744
0.065799
0.092601
0.036840
-0.094426
-0.155057
-0.230853
-0.249759
-0.211333
-0.221651
-0.193702
-0.058119
0.019117
-0.106631
-0.086859
-0.012836
0.033441
0.071651
0.037284
0.061341
0.009867
0.080666
0.113512
-0.014682
-0.321797
-0.124410
-0.029844
-0.013509
0.046246
0.087429
0.236147
0.126985
0.002281
-0.071519
-0.133405
-0.280287
-0.312835
-0.279157
-0.202122
-0.106054
-0.141617
-0.247111
-0.134098
0.052636
0.109745
0.048904
0.024902
0.060104
0.049134
0.147330
0.115770
-0.049046
-0.247506
0.002277
0.065211
-0.123787
0.036081
0.035455
0.237029
0.142178
0.100217
0.099161
-0.011987
-0.029472
-0.147750
-0.102376
-0.088847
-0.121807
-0.199205
-0.158087
-0.068851
0.078844
0.017574
0.055446
0.014891
0.095482
0.081919
0.189873
0.112551
-0.070712
-0.139146
-0.073771
-0.202326
0.012286
-0.047968
-0.115414
0.155804
0.155321
0.197859
0.168298
-0.008301
0.044017
-0.013482
0.110890
-0.001257
-0.085523
-0.107551
-0.129217
-0.030121
0.088127
0.065661
0.067490
-0.007656
0.038773
0.069247
0.087412
0.131607
0.052836
-0.217584
-0.069729
-0.164985
-0.031945
0.051666
-0.053340
0.113389
0.124080
0.269144
0.230407
0.049635
0.005595
-0.025810
0.059443
0.017984
-0.022138
0.025594
-0.047488
0.066084
0.053749
0.084605
0.049930
-0.092869
0.033277
0.038577
0.109429
0.112256
0.023898
-0.224294
-0.031187
0.014925
-0.026640
-0.004781
0.079654
0.175148
0.084715
0.019477
0.096504
0.004887
-0.042795
-0.078423
-0.082694
0.024119
0.008443
0.135815
0.135959
0.128423
0.098962
0.005124
-0.049166
-0.075003
-0.023519
0.028445
0.200572
0.131381
0.035083
-0.035952
0.000675
-0.028497
-0.047266
-0.023995
-0.003495
0.133443
0.048417
-0.158249
-0.050246
0.039348
0.013954
-0.105957
-0.078949
0.034616
-0.008597
0.107585
0.138772
0.149544
0.127446
-0.009559
-0.092915
0.030695
-0.005470
0.115514
0.239849
0.156591
-0.040671
-0.098041
0.028400
-0.024769
-0.007886
0.010871
0.138845
0.252134
0.145507
-0.125026
-0.064338
0.058028
0.027162
0.027878
0.084276
0.105490
0.044864
0.099674
0.157317
0.130601
0.152107
0.051445
0.035056
-0.045107
0.022130
-0.010258
0.048843
-0.061577
-0.029554
-0.141298
-0.073654
-0.023843
0.029132
0.023150
0.015066
0.241276
0.128400
-0.060693
0.052766
0.115074
0.119681
0.203307
0.141758
0.164904
0.171776
0.211908
0.271838
0.248225
0.187942
0.098580
0.031356
-0.058635
-0.150092
-0.144909
0.007583
-0.037533
-0.011467
0.002298
-0.061438
-0.015524
-0.019244
0.017054
0.043673
-0.030579
0.002448
0.041217
0.124390
0.103687
0.145028
0.151682
0.143968
0.070275
0.044296
0.071285
0.112803
0.167929
0.051959
-0.022633
-0.052441
-0.015641
-0.197983
-0.269105
-0.147927
-0.117350
0.000273
0.001477
0.017147
0.032394
0.002070
0.001272
-0.000511
-0.030346
-0.095564
-0.164211
-0.262938
-0.236705
-0.256870
-0.285183
-0.263762
-0.253161
-0.148197
-0.217929
-0.354406
-0.227187
-0.090208
-0.251606
-0.177588
-0.004629
-0.071831
-0.145306
-0.155481
-0.110336
0.003353
-0.019002
-0.005651
-0.021720
0.013639
0.007602
0.017703
-0.012254
-0.036728
-0.014973
-0.069424
-0.049310
-0.045541
-0.119719
-0.202231
-0.143484
-0.070309
-0.130450
-0.299753
-0.209161
-0.112565
-0.085267
-0.113056
-0.067746
-0.053493
-0.089593
-0.028261
-0.073759
0.025815
-0.034386
-0.026656
0.009474
-0.014710
0.006663
0.031118
0.016312
0.034956
-0.015127
-0.017055
-0.004535
-0.007193
-0.015710
-0.002217
0.032265
-0.019643
0.018656
0.015191
0.020623
0.009635
-0.013193
0.014740
-0.016821
-0.021922
0.033386
0.029603
-0.025811
0.029009
0.007406
0.009155
0.034424
-0.001875
-0.011359
0.022421
-0.009225
-0.008574
-0.014402
0.035153
-0.012661
-0.078933
-0.073030
-0.066249
0.070334
0.101875
0.045368
0.089620
0.084108
-0.171574
-0.131706
0.042851
0.218325
0.192684
0.109962
0.083404
0.066326
-0.010538
-0.007013
-0.028996
0.021706
0.023841
0.016753
0.018151
0.134782
0.174041
0.011696
0.013728
0.041326
-0.051677
0.055039
0.056226
-0.162839
-0.319007
-0.445482
-0.335463
-0.161183
-0.206662
-0.146036
-0.011718
0.091000
0.064255
0.045467
0.009881
0.018327
-0.078979
-0.048370
-0.019531
0.004054
-0.035631
0.000315
0.130626
0.144970
0.199689
0.044284
0.041463
0.148099
-0.073251
-0.040708
-0.088346
-0.468904
-0.577082
-0.770334
-0.497305
-0.427735
-0.474621
-0.297015
-0.369818
-0.252853
-0.134440
0.030570
-0.085216
-0.232154
-0.280598
0.060510
0.122041
0.006827
0.029992
-0.026807
0.099238
0.010946
0.195538
0.130326
0.046563
0.007823
-0.004680
-0.085620
-0.295783
-0.379912
-0.598027
-0.541107
-0.318049
-0.260849
-0.351201
-0.203531
-0.348317
-0.302692
-0.255894
-0.160725
-0.101940
-0.047382
-0.155861
0.043825
-0.024935
-0.038168
0.015214
0.031773
0.159697
0.096111
0.375063
0.297906
0.082021
-0.044591
-0.103684
-0.244335
-0.380434
-0.509874
-0.637607
-0.446038
-0.284732
-0.489403
-0.271374
-0.217626
-0.266924
-0.127384
-0.044214
-0.137567
-0.071478
0.088540
-0.006332
-0.135168
-0.013160
-0.075066
-0.021731
-0.141129
0.068049
0.185522
0.375492
0.202334
0.084959
-0.017007
-0.093616
-0.252690
-0.431579
-0.536097
-0.628736
-0.427871
-0.319752
-0.249531
-0.145573
0.002993
0.087546
0.051718
0.115218
-0.002212
-0.014258
0.015481
0.066543
-0.017805
-0.005235
0.074134
0.010658
-0.119750
0.108848
0.170383
0.250873
0.238776
-0.100654
-0.057355
-0.338165
-0.625333
-0.610789
-0.623131
-0.475059
-0.267269
-0.058607
0.027633
0.156836
0.256489
0.178635
0.097310
0.125430
0.178040
0.128003
0.090934
0.021268
-0.029777
-0.007102
0.097253
-0.076407
-0.041202
0.120459
0.105506
0.220396
0.126411
-0.071350
-0.346044
-0.540876
-0.588722
-0.611401
-0.465724
-0.293450
0.015906
0.132641
0.178398
0.329487
0.363658
0.330216
0.296637
0.307705
0.297647
0.228741
0.104915
0.162082
-0.058281
-0.165511
0.015018
-0.083984
-0.194431
0.028922
-0.003422
0.257907
0.089616
-0.310087
-0.401553
-0.527577
-0.447781
-0.292641
-0.292724
-0.018759
0.283055
0.338766
0.388134
0.387792
0.331019
0.339229
0.363370
0.284022
0.283926
0.273497
0.216251
0.277879
0.108863
-0.017023
-0.039636
-0.067080
-0.117603
0.055636
-0.133799
0.020127
-0.141572
-0.420094
-0.345133
-0.441875
-0.279260
-0.166604
-0.076526
0.131075
0.368746
0.514835
0.409461
0.325030
0.146776
0.167501
0.201829
0.160858
0.232614
0.320277
0.538645
0.502743
0.362293
0.195907
-0.063258
-0.017327
-0.152344
0.214960
-0.129076
0.029090
-0.258760
-0.258544
-0.225837
-0.118893
-0.194449
-0.085333
-0.026268
0.141001
0.343559
0.285479
0.248212
0.105649
-0.081903
0.019794
-0.104377
-0.031776
0.072709
0.222500
0.494523
0.463811
0.575763
0.229945
0.015049
0.019536
-0.107263
0.114007
0.099076
0.254732
-0.066511
-0.111342
-0.052280
0.002824
-0.035836
-0.023993
-0.002645
0.025043
0.197443
0.317698
0.162207
-0.074361
-0.170655
-0.224828
-0.410082
-0.392906
-0.424168
-0.338221
-0.241578
-0.334037
-0.105988
0.045446
0.032643
0.039061
-0.063922
-0.056297
0.065435
0.224926
0.026426
0.043793
0.136341
0.065636
-0.016822
0.001649
-0.017832
0.109606
0.213042
0.174484
-0.030032
-0.002756
-0.149511
-0.322242
-0.410478
-0.571270
-0.400786
-0.382479
-0.461627
-0.469081
-0.268937
-0.071825
-0.001884
-0.011084
0.042419
0.054653
0.037414
0.073355
0.198427
0.263545
0.057094
0.058768
0.035964
0.053405
0.009054
0.081058
0.231572
0.132356
0.064296
0.021843
-0.126191
-0.192734
-0.433309
-0.418344
-0.195695
-0.156271
-0.320058
-0.348258
-0.095557
0.063826
0.000802
0.014269
0.034085
0.102330
-0.087644
0.107978
0.266255
0.253676
0.097949
0.019492
-0.022653
-0.014238
0.046947
0.153995
0.208892
0.137656
0.017169
-0.040983
-0.058216
-0.111069
-0.400005
-0.419200
-0.354739
-0.283308
-0.323476
-0.246003
-0.118512
0.036255
-0.024866
-0.020738
-0.094754
-0.147100
-0.220871
0.064241
0.305958
0.319094
0.153806
0.070081
-0.060505
0.074516
0.054802
0.040377
0.098762
0.065561
-0.007861
-0.015327
-0.070147
-0.061492
-0.410307
-0.524096
-0.410190
-0.377792
-0.434863
-0.120508
-0.109089
-0.000923
0.073418
0.031567
0.009763
-0.204259
-0.196391
0.032833
0.274006
0.302655
0.286618
0.114137
0.162027
0.225863
0.106569
-0.050018
0.054150
0.061975
0.060568
0.035288
0.054677
-0.108124
-0.363348
-0.344470
-0.299896
-0.364217
-0.288933
-0.109374
0.049971
0.078695
0.144182
0.158362
0.012725
-0.070421
-0.278896
-0.082463
-0.053004
0.101626
0.227753
0.223084
0.189260
0.255178
0.146841
0.102613
0.215419
0.308360
0.115094
-0.060190
0.052214
-0.200097
-0.248089
-0.238485
-0.192300
-0.278128
-0.299155
-0.169960
-0.074826
0.084053
0.226505
-0.001399
0.146379
0.154564
-0.333406
-0.235325
-0.119384
-0.028079
0.099334
0.186475
0.180537
0.143526
0.075639
0.179643
0.251940
0.159773
-0.012637
-0.025614
-0.052729
-0.142385
-0.170830
-0.203810
-0.132833
-0.274958
-0.347836
-0.258896
-0.114349
0.027977
0.212507
-0.006283
0.097590
0.030721
-0.339437
-0.328414
-0.105642
-0.073877
-0.040045
0.031365
0.082918
0.015190
0.026616
0.031474
0.106703
0.114590
-0.047246
-0.094792
-0.146844
-0.162491
-0.135582
-0.311485
-0.262293
-0.239323
-0.350487
-0.221394
-0.006392
0.047128
0.053115
-0.019948
0.006283
-0.093222
-0.210920
-0.236352
-0.068324
-0.058683
-0.053655
-0.056940
-0.090368
-0.115876
-0.117301
-0.049991
0.066609
0.091054
-0.067754
-0.192556
-0.208346
-0.186200
-0.202244
-0.228040
-0.149093
-0.203124
-0.118091
-0.196435
0.037892
0.089462
0.017073
0.034281
-0.019448
-0.236331
-0.089939
-0.110513
-0.121818
0.078797
-0.001597
0.072160
0.022631
0.008171
-0.072513
0.102399
0.045476
0.038274
-0.233200
-0.273374
-0.181271
-0.156988
-0.207823
-0.243289
-0.169659
0.076445
0.156757
0.097428
0.136113
0.151643
-0.022851
0.032736
0.010168
-0.204333
-0.309449
-0.054346
-0.068224
-0.050694
-0.078776
0.005163
-0.010442
0.044793
-0.022536
0.041475
-0.079155
-0.161315
-0.155171
-0.258950
-0.187143
-0.101792
-0.296566
-0.097753
-0.130866
0.152243
0.185777
0.169546
0.074816
0.188384
0.012228
-0.029885
-0.012202
-0.117824
-0.257033
0.027751
0.130987
-0.063732
-0.007968
-0.007563
-0.102987
-0.057550
0.000518
0.024044
0.083369
0.024033
0.022933
-0.081444
0.055907
0.081157
-0.027082
0.004372
0.006955
0.191108
0.221983
0.127153
-0.033538
0.045938
-0.018225
0.028390
-0.025460
0.021498
0.073052
-0.003064
0.114869
-0.080374
0.033743
-0.105276
-0.137715
-0.025906
0.078729
0.135797
0.168073
0.161571
0.158999
0.277073
0.251693
0.115681
0.321006
0.288976
0.190310
0.287278
0.064493
-0.164904
-0.016214
-0.053427
0.033020
0.027881
0.029849
-0.000322
0.066885
0.152610
0.136413
0.089960
0.078426
0.119141
0.138213
0.135395
0.176966
0.373790
0.390107
0.388697
0.316476
0.429205
0.303114
0.207472
0.252725
0.257637
0.078580
-0.015155
-0.102320
0.021182
0.009009
-0.001602
0.008922
0.034457
0.011308
-0.017812
0.013815
-0.079953
-0.115379
0.052325
0.062987
0.054066
0.093999
0.164215
0.257245
0.162078
0.124067
0.305733
0.231500
0.195665
0.168537
0.132077
0.159653
0.136628
-0.115422
-0.092213
-0.094870
0.024328
0.003647
0.021533
0.009202
0.022772
0.000451
0.011917
0.035229
-0.011636
-0.014533
0.025925
0.013657
-0.033711
0.012702
-0.035027
-0.019390
0.000294
0.006498
-0.016459
0.022393
0.035492
0.027849
-0.032802
-0.012991
0.002173
0.029028
-0.005991
0.007461
0.018798
-0.018686
-0.021628
0.035319
-0.000797
0.025271
-0.034825
-0.013632
0.027295
0.002174
-0.019120
-0.064492
-0.022471
-0.062634
-0.042076
-0.040594
-0.078646
-0.086715
-0.033575
-0.028591
-0.196107
-0.075157
0.000441
0.026041
0.009692
0.001707
-0.035279
-0.095758
-0.015472
0.030532
-0.008188
-0.009618
0.002866
-0.019173
0.001695
-0.026961
-0.005418
-0.012718
-0.043650
-0.059229
-0.095436
-0.187460
-0.358426
-0.235090
-0.315344
-0.325818
-0.149246
-0.162963
-0.244951
-0.156723
-0.282237
-0.152358
-0.054660
0.073315
-0.002951
-0.078596
-0.004536
-0.026555
0.000293
-0.002623
0.026060
-0.032275
0.122077
-0.043545
-0.006966
-0.104404
-0.101515
-0.160402
-0.293149
-0.362001
-0.439544
-0.482073
-0.515392
-0.420449
-0.283606
-0.116365
-0.175851
-0.101929
-0.131459
-0.005626
-0.083355
-0.105479
-0.167951
-0.108271
-0.122148
-0.120182
-0.121941
0.002622
0.031229
-0.015622
0.103130
0.093046
0.030576
-0.108583
-0.163734
-0.147353
-0.233000
-0.171192
-0.242925
-0.235309
-0.212888
-0.221433
-0.169722
-0.157086
-0.101851
-0.035084
-0.125451
0.013814
0.152637
0.073026
-0.035196
-0.010206
-0.128551
-0.372694
-0.055731
0.022556
0.006478
0.010560
0.120913
0.164921
-0.101632
-0.124751
-0.169953
-0.125054
-0.173885
-0.148590
-0.222418
-0.118360
-0.029367
-0.038746
0.032092
0.085684
-0.096207
-0.021086
-0.053551
0.018528
-0.002012
0.035503
-0.018291
-0.057927
-0.064238
-0.230696
-0.049007
0.124202
0.013646
-0.115219
-0.015303
0.043724
0.008989
-0.078758
-0.169861
-0.121751
-0.069228
-0.196588
-0.082303
-0.027713
-0.005040
0.082070
0.173254
0.112550
0.102413
0.091088
0.015645
-0.102935
-0.058856
0.066657
-0.041021
-0.148419
-0.193939
-0.125171
-0.038294
0.013427
-0.022613
-0.279759
-0.099187
-0.042459
-0.117863
-0.130648
-0.088747
-0.107517
-0.154794
-0.101264
-0.052744
0.005221
0.048533
0.039626
0.051917
0.009012
0.016122
0.009627
-0.037312
-0.084182
0.020189
0.054883
0.059027
-0.024819
-0.151753
-0.120330
-0.017991
-0.035001
-0.019370
-0.203299
-0.070023
-0.152329
-0.168571
-0.050863
0.011615
-0.082424
-0.062340
-0.030179
-0.102355
-0.045344
-0.062350
0.027347
0.072524
0.046232
0.054273
0.005374
-0.045714
-0.110052
-0.101525
-0.042007
0.004559
-0.102076
-0.128666
0.015972
-0.009347
-0.072506
0.000121
-0.142883
-0.060724
-0.149854
-0.117117
-0.090742
-0.057487
0.006392
-0.063425
-0.123934
-0.020542
-0.009701
-0.096506
-0.014216
0.030652
0.169722
0.129809
-0.009663
-0.086460
-0.071969
-0.120536
-0.179070
-0.113126
-0.107269
-0.154974
-0.294824
-0.242409
-0.038829
-0.060621
-0.040248
-0.013761
-0.138487
-0.103877
-0.161236
-0.179978
-0.091418
0.016710
-0.042714
-0.044746
0.001362
-0.127933
-0.016400
0.092064
0.203123
0.204078
0.034753
0.004496
-0.077728
-0.093944
-0.109206
-0.087028
-0.198866
-0.353927
-0.358571
-0.199552
0.047938
-0.004250
-0.085219
-0.136851
-0.114474
-0.186562
-0.149052
-0.106367
-0.073235
0.149737
0.037831
0.000950
0.049196
0.029099
0.109397
0.205515
0.278922
0.226218
0.129874
0.029767
0.078028
0.089175
-0.080888
-0.189945
-0.262361
-0.508924
-0.403091
-0.201073
-0.021252
-0.024294
-0.053781
-0.150970
-0.183284
-0.129758
-0.122025
0.011262
0.047003
0.113337
0.100437
0.059451
0.034839
0.087884
0.152360
0.138194
0.197243
0.145053
0.145807
0.116958
0.176583
0.143781
0.027092
-0.077175
-0.109892
-0.353921
-0.422249
-0.274381
0.026228
0.045439
-0.040658
-0.163431
-0.098547
-0.091557
-0.117012
0.061678
0.067462
0.077663
0.055305
0.014260
-0.030060
0.112503
0.128650
0.125014
0.179886
0.162820
0.090575
0.111825
0.211611
0.131191
-0.025027
-0.227931
-0.461320
-0.426209
-0.360345
-0.354901
-0.038333
-0.116276
-0.052726
-0.142093
-0.019143
-0.043818
-0.101242
-0.011196
0.000423
-0.022668
-0.025059
-0.075236
0.047790
0.165492
0.156156
0.116231
0.181304
0.148981
0.080593
0.080761
0.100175
0.047547
-0.141703
-0.395580
-0.514633
-0.462693
-0.316859
-0.256071
-0.076635
-0.068638
0.006346
-0.064453
-0.107507
-0.078099
-0.124620
-0.187142
-0.222248
-0.131231
-0.126984
0.014226
0.125065
0.160908
0.159239
0.126275
0.135105
0.142165
0.058393
0.109755
0.003462
-0.154859
-0.318224
-0.329136
-0.401048
-0.413255
-0.228430
-0.128227
-0.102610
0.026305
0.008093
0.019470
-0.162305
-0.080349
-0.176039
-0.307708
-0.221957
-0.058691
0.000389
0.118161
0.218695
0.154291
0.067632
0.052979
0.004230
0.108776
0.003136
0.045942
-0.072506
-0.280572
-0.361389
-0.360436
-0.315153
-0.311585
-0.308787
-0.093888
-0.120044
0.004922
0.019793
-0.058161
-0.200631
-0.190056
-0.275740
-0.397076
-0.240810
-0.082007
0.072177
0.155221
0.135729
0.152256
0.120767
0.033954
0.008016
0.005675
-0.069751
-0.132212
-0.078723
-0.303757
-0.165684
-0.251959
-0.231324
-0.271892
-0.308208
-0.083787
-0.088710
-0.140637
0.018219
-0.078193
-0.145179
-0.226076
-0.349993
-0.434129
-0.363506
-0.194249
-0.071862
0.048274
0.084980
0.032608
-0.053105
-0.035539
-0.058878
-0.057122
-0.089468
-0.146621
-0.162974
-0.258285
-0.200656
-0.444157
-0.448716
-0.445035
-0.285088
0.035892
0.186505
0.043775
-0.141037
-0.100034
-0.089564
-0.227733
-0.394172
-0.402504
-0.273372
-0.300813
-0.252776
-0.017593
0.012937
-0.022515
-0.125220
-0.103145
-0.058308
0.018545
-0.042855
-0.056091
-0.124883
-0.277576
-0.191080
-0.319671
-0.468998
-0.324959
-0.136528
0.052915
0.147758
-0.027357
0.041635
0.036616
0.024226
-0.148540
-0.242071
-0.174357
-0.166941
-0.162977
-0.113883
-0.013255
-0.098236
-0.116706
-0.176868
-0.065761
-0.067453
0.037632
0.040716
-0.037851
-0.178849
-0.276208
-0.194767
-0.157257
-0.246273
-0.175306
0.035072
0.056621
0.018647
0.050915
0.017917
-0.004800
0.006122
-0.103995
0.021493
-0.056069
-0.067448
-0.070354
0.013494
0.056008
-0.068703
-0.066380
-0.156112
-0.144745
-0.018508
0.055447
-0.020671
-0.089978
-0.300919
-0.188700
-0.195631
-0.218934
-0.163631
-0.050880
0.051393
0.028610
0.011384
0.048082
-0.023620
-0.094805
-0.145955
-0.118158
0.171652
0.150482
0.037944
0.050902
0.021189
0.068480
-0.067511
-0.017570
-0.072623
-0.034285
-0.060366
0.040896
0.047588
-0.013662
-0.220873
-0.160061
-0.171637
-0.198613
0.014045
0.112323
0.033382
0.105117
-0.016510
0.028217
0.024813
-0.162129
-0.351635
-0.216036
0.139132
0.121470
0.092598
0.112490
0.012957
0.023500
-0.011006
0.050252
0.014062
-0.028520
-0.086941
0.017813
0.109968
-0.009314
-0.039176
-0.095038
-0.127154
-0.005361
0.107467
0.092419
0.018702
0.141337
-0.032572
-0.023333
-0.002335
-0.066082
-0.220887
-0.030294
0.250505
0.088231
0.050156
0.000735
-0.064021
-0.014237
-0.067080
-0.107490
-0.087579
-0.128410
-0.120708
-0.065893
0.035303
0.065669
0.019321
0.001737
0.000952
0.093525
0.160045
-0.004367
-0.042194
-0.045723
-0.005345
-0.025653
-0.014930
0.077073
0.009602
-0.025605
0.147672
0.040486
0.016878
0.017778
-0.072295
0.005627
-0.022255
-0.102214
-0.107298
-0.046245
-0.106732
-0.014222
0.033599
0.024035
-0.050451
-0.002745
-0.034247
0.042980
0.151017
0.006371
-0.066881
-0.067433
0.016420
-0.000469
-0.008157
-0.007587
0.045878
0.181932
0.159150
0.078416
0.134711
0.133739
0.168713
0.163336
0.038130
0.054871
0.060243
0.125624
-0.039731
0.054888
0.209867
0.158089
0.003284
0.031108
0.074754
-0.013364
0.093444
0.000519
-0.004945
0.030266
-0.022098
-0.011017
-0.015184
-0.014620
0.031459
-0.005151
-0.065185
0.053578
0.097370
0.066936
0.025514
-0.066195
0.137199
0.104520
-0.092117
0.112732
0.067823
0.026668
0.063796
0.126305
0.140592
-0.054128
-0.149549
-0.139677
-0.015775
-0.026195
0.010861
-0.032460
-0.007484
-0.011579
0.027270
-0.034400
0.012689
-0.032544
0.015483
0.008747
-0.014054
0.010549
0.034278
0.021743
-0.032588
-0.009256
0.032396
0.005525
0.004403
0.002548
-0.012557
-0.009343
0.002370
0.026884
-0.010066
-0.009346
0.006799
-0.013072
0.031152
0.026867
0.001500
-0.023095
0.009995
0.030288
0.011766
0.014970
-0.008576
-0.026560
-0.008278
0.000614
0.017726
0.000654
0.137669
0.122747
0.113471
-0.151134
-0.066659
-0.011879
0.062600
0.050810
0.099830
0.043467
0.025945
0.037999
-0.010613
0.001231
0.032328
-0.012559
0.016931
0.005940
0.019908
0.012443
0.151779
0.146329
-0.025443
0.001996
-0.026383
-0.129621
-0.119270
-0.059624
-0.078549
-0.060747
-0.217732
-0.348533
-0.420717
-0.342773
-0.280876
-0.205961
-0.177779
-0.124531
-0.001119
-0.006111
0.076585
0.026452
0.033798
0.031868
0.016652
0.030036
0.026906
-0.006216
0.158307
-0.017244
-0.002328
0.123211
0.009506
-0.027152
-0.115393
-0.129257
0.076802
0.140435
0.055877
0.068459
0.000273
0.092562
0.185122
0.160321
0.046029
0.107154
-0.110603
-0.132566
-0.003670
0.113317
0.191461
0.108920
-0.012553
0.028882
0.002365
0.021763
0.090457
-0.083826
0.030355
0.086020
-0.044893
0.092671
0.074095
0.043146
0.102017
0.166546
0.168665
0.180557
0.199848
0.068756
0.050741
0.038630
-0.073483
-0.073025
-0.035125
0.045753
-0.108126
-0.039971
0.030093
0.118980
0.073286
0.011560
-0.001697
0.020367
-0.026928
-0.048723
-0.063170
-0.012151
0.054915
0.031277
0.055039
-0.079413
-0.082735
-0.027596
0.114590
0.085929
-0.041178
-0.084193
-0.050155
-0.008675
0.026926
-0.031916
-0.056760
-0.113896
-0.192024
-0.126496
0.082550
0.054148
-0.002836
0.017694
0.111662
0.032609
0.082834
-0.049040
-0.096103
-0.045863
-0.019694
0.046142
0.009421
-0.023890
-0.080699
-0.049753
-0.121542
-0.233441
-0.127218
-0.075157
0.023882
0.097492
0.112743
0.097924
0.090984
-0.074603
-0.145253
-0.063140
0.048526
-0.038771
-0.054701
-0.027345
0.198717
0.026062
0.189760
0.097779
0.054310
0.028249
-0.017741
-0.033189
-0.069852
-0.042757
-0.081883
-0.074644
-0.160074
-0.195769
-0.095600
-0.043760
0.148983
0.162785
0.161692
0.104386
0.088600
-0.063910
0.006484
0.072917
0.071320
-0.039741
0.039224
0.051030
0.147299
0.001479
0.082068
0.110085
0.092659
0.145496
0.162357
0.057172
0.075776
0.068370
0.058405
0.079471
-0.008802
0.073455
0.082536
0.196483
0.099841
0.194064
0.117115
0.123582
0.123109
0.146906
0.233569
0.137461
-0.052718
-0.065306
-0.004526
0.061552
0.174428
-0.034373
0.118807
0.140563
0.208829
0.114181
0.068936
0.008467
0.082325
0.083179
0.021472
0.188483
0.224747
0.245962
0.176400
0.146424
0.156266
0.128842
0.152225
0.211444
0.144028
0.257276
0.269330
0.098785
0.038654
-0.143043
0.081383
0.040430
0.101436
0.131866
0.162709
0.160386
0.121818
0.090223
0.020033
-0.058461
0.051323
0.093959
0.053350
0.193125
0.332739
0.379652
0.141171
0.143866
0.096766
0.062976
0.023816
0.200974
0.182238
0.269698
0.233337
-0.001494
-0.138856
-0.053714
0.066503
0.038749
0.106285
0.170138
0.208861
0.119315
-0.006568
0.043198
0.056684
-0.061062
-0.005169
0.080345
0.145694
0.251169
0.385626
0.312380
0.002689
-0.103897
-0.022266
-0.017406
-0.021056
0.158952
0.255367
0.285834
0.189195
0.197261
-0.033512
0.132249
-0.001714
0.024570
0.124624
0.171700
0.182539
0.135278
0.031842
0.019350
-0.020523
-0.018373
-0.048054
-0.020475
0.011156
-0.011443
0.037718
0.069329
0.011990
-0.022112
0.016319
-0.009234
-0.010877
-0.038342
0.139248
0.226508
0.250820
0.315179
0.179513
0.169048
0.006481
0.000967
0.062810
0.117240
0.084778
0.075866
-0.037507
-0.096443
-0.065739
-0.119983
-0.087533
-0.066765
-0.092929
-0.199975
-0.130757
-0.024155
0.033130
0.001595
-0.018728
0.008414
0.019542
-0.006059
0.081689
0.159927
0.266817
0.261081
0.069204
0.085402
0.025597
-0.002883
0.048081
0.258531
0.043670
0.035227
0.005578
-0.035956
-0.089971
-0.111109
-0.037316
-0.062170
-0.112036
-0.172805
-0.087788
-0.076767
-0.064845
-0.132245
0.010930
0.109912
0.162531
0.100998
0.180019
0.122301
0.156107
0.211383
-0.003270
-0.199341
0.030089
-0.009909
0.011697
0.069304
-0.204758
0.108284
0.054100
-0.008564
-0.024318
-0.031281
0.044693
-0.048408
-0.127210
-0.135896
-0.100841
-0.107789
-0.068466
-0.167268
-0.015912
0.116778
0.147989
0.175293
0.154071
0.174479
0.164364
0.123603
-0.109895
-0.055066
-0.053884
0.016368
0.044116
0.078197
-0.214482
0.143761
0.085568
0.060050
0.099122
0.025690
0.027339
-0.070238
-0.201323
-0.150121
-0.186469
-0.191653
-0.084698
-0.022917
0.077205
0.086872
0.062728
0.041592
0.049618
0.079271
0.110868
-0.036730
-0.230192
-0.142427
-0.061807
-0.003787
0.014985
-0.062822
-0.015947
0.085639
0.029319
0.012447
0.065542
0.056793
0.123844
-0.085911
-0.197137
-0.198558
-0.209141
-0.080283
-0.099190
0.016303
0.008738
0.000461
0.089824
-0.017906
-0.015974
0.078395
0.023041
-0.033921
-0.112982
-0.136429
0.026926
0.102480
0.014055
0.055583
-0.072634
-0.062303
-0.012136
0.027614
-0.020132
0.037827
0.051817
0.039129
-0.056530
-0.198990
-0.124404
0.016075
-0.018964
-0.062353
0.051699
-0.003103
-0.014795
0.023911
-0.019397
0.080227
-0.037844
-0.219244
-0.063707
-0.125056
-0.115139
-0.010895
0.188066
0.018106
-0.086147
-0.007554
0.039605
0.054868
0.045794
0.069318
0.071801
0.103461
-0.038874
-0.005280
-0.021201
0.025277
-0.065535
-0.061801
-0.026427
-0.048312
-0.065717
0.023768
-0.040341
0.007536
-0.119199
-0.109997
-0.112231
-0.161902
-0.137525
-0.001005
0.128817
-0.069584
-0.021014
-0.024072
0.121018
0.112122
0.141267
0.098201
0.026864
0.035316
0.003556
0.022226
0.055798
-0.046058
-0.073361
-0.124469
-0.040154
-0.053492
-0.030464
-0.065793
-0.093511
-0.121844
-0.217065
-0.109162
-0.067232
-0.067998
0.005217
-0.033988
-0.058135
0.027648
-0.032330
-0.038673
-0.054922
0.127531
0.077118
-0.013924
-0.030243
-0.041801
0.080855
0.069671
0.042764
0.002108
-0.060012
-0.027787
0.013952
-0.002890
-0.062452
-0.115363
-0.170610
-0.232424
-0.396262
-0.208725
-0.114678
-0.059728
-0.000221
-0.000632
-0.012965
-0.075751
-0.142571
-0.114378
-0.108897
0.074367
0.153656
0.055148
-0.055642
-0.006055
-0.006432
0.028477
0.116612
0.090239
0.091652
0.033850
0.015684
-0.016710
-0.064689
-0.242529
-0.277614
-0.198936
-0.243225
-0.284638
-0.088695
-0.191168
-0.015337
0.026310
-0.023512
-0.073952
-0.106513
-0.094526
-0.150880
-0.055509
0.095920
0.044455
-0.065651
-0.052368
-0.031335
-0.030979
0.069289
0.034537
0.099438
0.022176
0.074947
-0.000934
-0.182105
-0.376557
-0.326294
-0.238595
-0.213664
-0.214479
-0.111932
-0.151270
0.003554
0.003787
-0.007242
0.030203
0.116087
0.161794
0.085893
0.186990
0.081237
0.083115
-0.006531
0.020233
0.053325
0.086967
0.059274
0.011298
0.031851
0.131990
0.031300
-0.120576
-0.163189
-0.236896
-0.216192
-0.205034
-0.226249
-0.205360
-0.132855
-0.044619
-0.034589
-0.016686
-0.015107
-0.109923
0.022010
0.028568
0.073300
0.122159
0.218707
0.152382
0.057004
0.157227
0.186858
0.213432
0.100210
0.014203
0.052832
0.152268
0.090539
-0.001758
0.052181
-0.100935
-0.114832
-0.018862
-0.149994
-0.100386
-0.052604
-0.013010
-0.032632
0.028587
0.012001
-0.035523
-0.106964
-0.155002
0.017149
0.063049
0.093707
0.137340
0.064899
0.056849
0.111353
0.089564
0.179921
0.089841
0.095704
0.025068
0.044147
0.144297
0.141105
-0.050969
-0.076468
0.052218
-0.026838
-0.034865
0.023034
-0.008907
-0.017209
-0.035233
0.024598
-0.000802
0.017251
0.024140
-0.003666
0.111713
0.202340
0.163794
0.048115
0.240449
0.047159
-0.043860
0.151097
0.142040
0.062181
-0.013202
0.089561
0.089792
0.075658
0.001576
-0.021598
0.027377
0.117959
-0.016272
0.017623
0.028329
-0.001112
-0.023024
0.025674
0.029061
0.024347
-0.000646
0.008779
0.001817
-0.013565
-0.035363
-0.004365
0.015447
0.020833
0.046360
0.046375
0.030772
0.001315
0.023321
-0.000750
-0.012648
-0.013869
-0.020814
-0.027507
0.008181
0.033002
0.005077
0.004827
-0.013398
-0.014078
-0.011194
0.012362
0.006157
-0.013122
0.004573
-0.012144
-0.013640
0.011655
-0.038201
0.011052
0.030140
0.159946
0.138169
0.126588
0.039534
0.138592
0.084841
-0.041503
-0.055959
0.070834
0.151110
0.039375
0.086016
0.040510
-0.030872
-0.028603
0.012400
-0.010428
-0.008495
-0.021533
0.017356
0.104190
0.108235
0.003024
0.018492
0.028398
-0.064971
-0.058823
0.098727
0.178043
0.253705
0.228678
0.219743
0.097427
0.202606
-0.017058
-0.119469
-0.072692
0.039457
0.080239
0.093333
0.137806
0.055269
0.025305
0.015200
-0.002516
-0.005988
0.005782
0.126506
0.134687
-0.002713
-0.155462
0.014543
0.065792
0.052955
-0.036804
0.047087
0.155537
0.142461
0.273722
0.124862
0.221638
0.238716
0.086571
0.037930
-0.013052
-0.149485
-0.267724
-0.214883
0.072065
0.146948
-0.061550
-0.211513
-0.022354
0.030046
-0.021462
0.136154
0.077751
-0.108089
-0.173295
0.039014
-0.054331
-0.004710
-0.033139
-0.000087
0.047675
0.010528
0.079989
0.260776
0.283981
0.234401
0.178302
0.139551
0.049291
0.012476
-0.076292
-0.071641
-0.116509
-0.147639
-0.041199
0.085136
0.003448
0.024547
-0.019148
0.136671
0.037986
-0.100922
-0.171388
-0.116249
-0.100966
-0.220025
-0.216228
-0.148092
-0.090865
-0.037637
0.040354
0.127772
0.154735
0.173737
0.175551
0.176999
0.133921
-0.009387
0.035394
-0.068107
-0.150768
-0.083871
-0.080026
-0.011117
-0.059288
0.023067
0.069094
-0.140307
0.042687
-0.172702
-0.247432
-0.168454
-0.286989
-0.260352
-0.203577
-0.136372
-0.097566
-0.104634
-0.123627
-0.065543
0.054462
0.192809
0.174853
0.282154
0.139656
0.089910
0.038756
-0.024866
-0.018354
-0.086409
-0.017557
-0.054513
-0.036670
-0.028256
0.104000
-0.020389
-0.040366
-0.089836
-0.135987
-0.161086
-0.200402
-0.138632
-0.081406
-0.104890
-0.155640
-0.120808
-0.108790
-0.114891
-0.016298
0.122732
0.201465
0.183139
0.181330
0.142988
0.103395
0.046974
0.003969
-0.082335
-0.122486
-0.161396
-0.015308
0.079844
0.128093
-0.009818
0.030084
-0.001352
-0.070473
-0.094545
-0.075649
-0.083875
0.000016
-0.075149
-0.052611
-0.109793
-0.113127
-0.014743
0.088910
0.121839
0.155881
0.161514
0.115872
0.071349
0.068611
0.074698
0.012856
-0.123645
-0.209369
0.030473
0.050349
0.001759
-0.132429
-0.011686
0.119696
0.087893
0.007612
-0.030961
-0.032122
0.003465
-0.028173
-0.035056
-0.063321
-0.062717
0.018416
0.058284
0.147067
0.108054
0.066735
0.019923
0.091344
0.133368
0.118245
0.100623
0.146398
-0.089797
-0.128241
-0.044086
0.071215
0.042208
-0.117162
-0.071511
0.021674
-0.040419
-0.059875
-0.015659
-0.070159
-0.055960
-0.059494
-0.016876
-0.020499
0.053060
0.039461
0.154096
0.088246
-0.058653
-0.076690
0.019667
0.157140
0.157218
0.180045
0.182733
0.152983
-0.096579
-0.199752
-0.109227
0.066386
-0.013715
0.020812
-0.073876
-0.167471
-0.066298
-0.024789
-0.006636
0.023774
0.014238
-0.058060
-0.075745
0.000480
-0.029838
-0.010745
0.110038
-0.109150
-0.254076
-0.156087
-0.018175
0.039476
0.185352
0.216649
0.258740
0.174819
0.067693
-0.204223
-0.052631
0.030139
-0.001827
-0.000685
-0.022283
-0.128487
0.028103
0.048877
0.018053
0.020370
-0.032832
0.019716
-0.095666
-0.145104
-0.209790
-0.111249
-0.053281
-0.054897
-0.101157
0.013335
-0.023500
0.014742
0.108675
0.317449
0.329576
0.511059
0.637212
0.201124
0.122423
0.118268
0.047411
-0.081850
0.035398
-0.061149
-0.068242
-0.076072
-0.125597
-0.056049
-0.053225
-0.039392
-0.081463
-0.136844
-0.144840
-0.021861
0.050906
0.064426
0.061973
0.033256
0.030783
-0.004557
0.050212
0.096918
0.119960
0.268762
0.437391
0.269532
0.303362
0.197372
-0.000747
-0.059568
0.135218
-0.033264
-0.059747
-0.096132
0.053546
0.012449
-0.081787
-0.050595
-0.057308
0.053148
0.058517
0.123924
0.106120
0.067300
-0.015739
-0.067850
0.026425
0.021138
0.006392
0.055447
-0.040475
-0.042453
0.040080
0.134467
0.311881
0.115800
-0.009905
-0.004513
0.083216
-0.148355
-0.002571
0.111171
0.069041
0.060376
-0.035882
0.021742
0.027605
0.069819
0.093532
0.134214
0.118434
0.059110
-0.058527
-0.031482
-0.037233
-0.076628
-0.076303
-0.044952
0.020395
-0.121756
-0.063784
0.047395
0.115517
0.083876
0.024129
-0.026302
0.026159
-0.127783
0.044684
0.099581
0.076786
0.020157
0.055870
0.157833
0.166308
0.098858
0.049504
0.040848
0.021467
-0.022570
0.046051
-0.092457
-0.149959
-0.220497
-0.176879
-0.168789
-0.090750
-0.042255
-0.049512
0.046414
0.166930
0.103381
0.008898
-0.039154
-0.124259
-0.143861
0.024269
-0.043973
-0.039654
0.066764
0.140320
0.152064
0.209598
0.055926
0.050514
-0.029348
-0.026463
-0.098921
-0.012980
-0.129748
-0.224190
-0.193306
-0.218243
-0.206513
-0.081900
-0.043406
-0.059838
0.042633
0.287312
0.090794
0.120948
0.000669
-0.188739
-0.112915
-0.028075
-0.001983
0.021242
0.014929
0.043509
0.163276
0.134694
0.055775
-0.042933
-0.017830
-0.081972
-0.117276
-0.104477
-0.102224
-0.119608
-0.135426
-0.121734
-0.158613
0.107614
0.196966
0.103269
0.175193
0.140639
0.096610
0.024244
0.056904
-0.203057
-0.234017
-0.082663
-0.081021
0.000901
0.098947
0.152177
0.201549
0.153980
0.003418
0.019878
-0.071488
-0.075743
-0.076885
-0.073451
-0.043907
-0.102005
-0.121015
0.030983
-0.022810
0.130871
0.168758
0.068034
0.199339
0.151310
0.062568
-0.030631
0.072529
-0.203936
-0.123341
-0.080255
-0.042077
0.089524
0.178969
0.170906
0.135451
0.091135
-0.009458
-0.031321
-0.074883
0.010953
-0.008038
-0.090704
-0.076818
-0.059955
0.010619
0.014160
0.007140
0.123335
0.081343
-0.120372
0.201504
0.067280
0.038705
0.025259
0.077974
0.013900
0.018038
-0.130450
0.028500
0.145763
0.133422
0.061159
0.066812
0.076491
-0.016150
-0.048920
-0.027626
0.018610
-0.039910
-0.062194
-0.110647
0.052331
0.017476
-0.072425
-0.080466
0.001368
-0.080823
-0.144423
0.147788
0.101338
-0.004684
-0.014680
0.005014
0.077386
-0.080262
-0.023480
0.143652
0.179719
0.201624
0.132782
0.008209
0.057592
0.017113
-0.031563
0.008296
0.035475
0.025124
-0.053871
-0.119051
-0.014310
-0.044079
-0.133934
-0.022702
-0.015474
-0.017241
-0.099214
0.032012
-0.038563
0.032129
-0.002374
-0.006614
0.051733
-0.191100
-0.120710
-0.107280
0.067379
0.114487
0.131706
0.099892
0.032819
0.064265
0.130443
0.082702
-0.006258
0.068851
0.052226
-0.009941
0.045246
0.007819
-0.085893
-0.051075
-0.006575
0.057001
0.131605
0.096189
-0.081629
-0.007761
-0.029818
0.027654
-0.110658
-0.247375
-0.176083
-0.177184
-0.166409
-0.092897
0.055927
-0.010120
-0.031977
0.007167
0.073183
0.033542
0.060329
0.102076
0.077174
-0.000962
-0.058500
-0.083379
-0.082878
-0.089912
-0.082609
-0.037410
0.157339
0.134752
0.110253
-0.014531
0.025765
-0.029629
-0.027370
-0.047378
-0.281005
-0.249276
-0.043779
-0.034675
-0.031571
-0.082981
-0.081453
-0.021223
0.049970
-0.064420
-0.080066
-0.017899
-0.038783
-0.051224
-0.063698
-0.016044
0.017224
-0.045717
-0.103854
-0.100614
-0.076423
0.063054
0.102617
0.022771
-0.010785
-0.003334
-0.001720
-0.069259
-0.006602
-0.024379
0.058656
0.128250
0.168514
0.077301
0.014417
-0.117848
-0.097137
-0.131759
-0.131732
-0.008552
-0.109989
-0.135736
0.150429
0.123071
0.028858
-0.107357
0.007129
0.073792
0.042865
-0.014713
-0.025334
-0.011214
-0.017704
-0.012526
-0.027207
-0.010773
0.007169
-0.027808
0.139937
0.123067
0.151590
0.118316
0.173903
0.073509
0.032538
0.075145
0.187689
0.091780
0.088857
0.151815
0.183281
0.119184
0.006410
-0.050756
0.043910
0.025534
-0.028024
-0.018730
-0.008651
0.000113
0.017638
-0.014681
0.005255
-0.019373
-0.016976
0.023306
-0.009782
-0.031294
0.001500
-0.005091
0.010153
-0.018219
0.074658
0.031097
-0.030004
-0.000153
0.011039
0.006607
0.032990
0.003311
0.003037
-0.004669
-0.034529
0.013968
0.027841
0.003539
-0.027853
0.032067
0.008001
0.025832
0.015511
0.005633
-0.004414
0.008071
-0.021441
-0.030966
-0.006522
0.000500
0.034409
-0.057912
-0.052434
0.007085
0.009752
-0.005135
-0.061149
0.055656
0.048749
0.102696
0.126646
0.068356
-0.060097
-0.044056
0.027441
0.020900
0.017401
0.021719
-0.032004
0.007594
0.026913
-0.100714
-0.094221
-0.015384
0.020872
0.042974
-0.040193
-0.068383
-0.070304
0.043483
0.089262
0.065756
0.117337
0.061612
-0.074912
-0.013234
-0.084398
-0.038492
-0.037561
0.045221
0.088644
0.011564
0.036477
-0.078608
0.015997
-0.035217
-0.010562
0.000723
0.085586
-0.082711
0.018230
0.020471
-0.047276
0.004683
-0.016675
0.075069
0.003383
-0.110242
-0.121921
-0.110406
-0.091128
-0.030504
-0.067148
-0.050067
-0.092429
-0.025942
-0.061790
0.048649
0.057441
0.094777
0.066819
-0.056951
-0.135975
0.016270
-0.025569
0.010444
0.033657
0.015881
0.058359
-0.034944
-0.212250
-0.082757
-0.081613
0.056877
-0.016794
-0.102673
-0.070759
-0.092829
-0.037154
-0.054917
0.012145
0.017986
-0.131991
-0.007615
0.092343
0.140689
0.102825
0.173711
0.004831
-0.222487
-0.098816
0.047427
-0.015975
0.025019
0.042665
0.003673
-0.067022
-0.100695
-0.111429
0.021750
-0.014784
0.039457
-0.075371
-0.079606
0.041979
-0.067144
0.053049
-0.020228
-0.042295
-0.029320
-0.091951
0.078152
0.077635
0.118638
0.120762
0.169497
0.045012
-0.204690
-0.072215
0.074846
0.027454
-0.022267
0.041322
-0.078298
-0.041977
0.007067
-0.065336
-0.003860
-0.093805
-0.029946
-0.079045
-0.036505
-0.047674
-0.138199
-0.026375
-0.152018
-0.226162
-0.132546
-0.144728
-0.014652
0.068832
0.087929
0.189700
0.222566
0.002012
-0.035282
-0.021806
0.037953
-0.023764
-0.192905
0.052235
-0.103007
-0.023080
0.018691
-0.133671
-0.050393
-0.087424
0.011826
0.107218
0.066730
-0.099941
-0.041497
-0.057150
-0.192624
-0.260753
-0.083172
-0.061715
-0.014317
0.036504
0.099562
0.121939
0.120951
0.006227
-0.010374
0.084061
-0.019395
-0.009161
-0.197717
0.044625
-0.050168
0.036798
-0.007489
-0.052689
-0.010760
0.008915
0.068215
0.041423
0.012735
-0.047079
-0.054560
-0.166104
-0.152515
-0.220060
-0.084717
-0.065894
-0.058755
-0.026023
-0.032108
-0.069419
-0.076758
-0.074098
0.164002
0.064294
-0.098322
-0.010017
-0.176927
-0.036309
-0.046752
-0.176741
-0.200641
-0.157586
-0.078319
-0.026684
-0.064220
-0.073037
0.077151
-0.008245
-0.084337
-0.110745
-0.111337
-0.088673
-0.119137
-0.062753
-0.131029
-0.142628
-0.117215
-0.157539
-0.105120
-0.178060
-0.155112
-0.140463
-0.084662
-0.038734
-0.028542
-0.044293
-0.174822
-0.062042
-0.240002
-0.226652
-0.110762
0.049287
0.059634
0.041052
0.067047
0.064609
0.021326
-0.053688
-0.016675
-0.029948
-0.067545
-0.130526
-0.138474
-0.201312
-0.175365
-0.188790
-0.227661
-0.266593
-0.181845
-0.288901
-0.039848
0.010619
-0.067395
-0.068228
-0.136207
-0.086020
-0.153998
-0.124120
0.037589
0.129735
0.123297
0.153574
0.167195
0.171345
-0.004431
-0.036836
0.049575
0.150450
0.004602
-0.098842
-0.136646
-0.126584
-0.131658
-0.224732
-0.237796
-0.360049
-0.335584
-0.275181
-0.019753
-0.034446
-0.094794
-0.066348
-0.090892
-0.103139
-0.189326
0.078003
0.146097
0.114179
0.110410
0.181265
0.195336
0.210990
0.062162
-0.111154
0.087126
0.131009
0.059553
0.017219
-0.014390
-0.043219
-0.007343
-0.024797
-0.001742
-0.170047
-0.184175
-0.191120
0.005905
0.026255
-0.006676
-0.111414
-0.069699
-0.028300
0.042337
0.173197
0.123046
0.101995
0.101820
0.162535
0.116727
0.090996
-0.076117
-0.077333
0.129656
0.130414
0.117037
0.119105
0.072985
0.061821
0.058073
-0.002601
-0.017794
-0.160386
-0.238700
-0.296417
-0.134567
-0.071787
0.029802
-0.039062
0.032943
0.067354
0.066374
0.078694
0.057349
0.124085
0.133389
0.069939
0.113631
0.023739
-0.075633
0.043727
0.151800
0.162364
0.160661
0.026855
0.069908
0.005793
-0.078337
-0.030333
-0.094536
-0.140268
-0.148478
-0.278841
-0.100123
-0.022748
0.033898
0.249233
0.071199
-0.016005
-0.115488
-0.101908
0.031673
0.120779
0.103273
0.077230
0.071567
0.032028
0.022069
0.135595
0.098719
0.174940
0.095718
-0.000469
0.014560
-0.089603
-0.091389
0.014919
-0.026795
-0.220556
-0.005519
-0.141811
-0.077069
-0.024008
-0.000379
0.085583
-0.012393
-0.131551
-0.177850
-0.089784
0.048659
0.132201
0.177268
0.082214
0.061413
-0.042894
0.060174
0.192274
0.128127
0.089380
-0.044298
-0.029487
-0.018822
-0.077340
-0.002013
-0.015784
-0.063607
-0.170356
-0.090231
-0.254511
-0.089348
0.006927
0.028920
0.030547
-0.107538
-0.142752
-0.152183
-0.127586
-0.023930
0.102027
0.140223
-0.004376
-0.007715
-0.051375
0.140710
0.208909
0.126903
0.049679
0.001271
0.004867
-0.115671
-0.088797
-0.015628
-0.076272
0.026164
-0.071936
-0.103254
-0.218052
-0.137533
-0.133596
-0.006291
0.067964
-0.075404
-0.106414
-0.132311
-0.172881
-0.135715
-0.074597
0.015781
-0.101733
-0.092371
0.096258
0.095661
0.117928
0.084726
0.039286
-0.023324
-0.059795
-0.073009
0.003027
-0.016519
-0.218823
-0.133984
-0.162873
-0.090598
-0.004170
0.015088
0.003651
-0.162167
-0.002465
-0.015275
-0.113263
-0.123713
-0.144301
-0.117455
-0.190705
-0.133203
-0.142320
0.024339
0.015920
0.032702
0.018632
0.065480
0.059125
-0.027383
0.031282
-0.001167
-0.064104
-0.140195
-0.235739
-0.201338
-0.249499
-0.189358
-0.009327
0.171339
0.027820
-0.062785
0.046118
-0.028719
-0.143184
-0.182663
-0.190481
-0.103044
-0.087465
-0.066631
-0.007723
-0.023118
-0.031497
-0.104862
0.080696
0.078029
0.170292
0.138034
0.161556
0.045362
-0.031103
-0.010795
-0.290542
-0.223330
-0.196566
-0.232961
0.029267
0.010359
0.002459
-0.024504
-0.097019
-0.070918
-0.002690
-0.040087
-0.165468
-0.124690
-0.032603
0.084956
0.099423
0.056569
-0.067083
-0.042104
0.027838
0.107252
0.096692
0.176540
0.167353
0.005536
0.045764
-0.037517
-0.138678
-0.240738
-0.160246
-0.147372
-0.041831
-0.015670
0.035922
-0.003052
-0.070741
-0.096448
-0.080487
0.104347
-0.092912
-0.073537
-0.063014
0.053334
0.092915
0.005199
0.004930
0.029956
0.018546
0.125552
0.124455
0.187208
0.156240
0.101855
0.025185
-0.019232
-0.103408
-0.222668
-0.069403
-0.075860
0.165089
-0.012308
0.030197
-0.019965
-0.089337
-0.237613
-0.108544
0.071078
0.111262
-0.039831
0.050618
0.089109
0.006812
-0.043125
0.010769
-0.028019
0.046022
0.060347
0.109858
0.188695
0.144774
0.181232
0.038517
-0.010776
-0.089749
-0.211862
-0.239174
-0.161458
0.156129
-0.011505
-0.028298
0.013822
-0.024919
-0.259032
-0.242405
-0.000199
-0.009207
-0.034085
-0.084608
0.024444
0.063213
-0.026766
-0.160160
-0.135442
-0.127457
-0.083464
-0.139270
-0.086203
0.062808
0.071781
-0.001032
-0.051104
0.034467
-0.032780
-0.196145
-0.028272
-0.087327
0.020670
0.007312
0.000474
0.034647
-0.036221
-0.171116
-0.210741
-0.154122
-0.271792
-0.204279
-0.097994
-0.111865
-0.159269
-0.278833
-0.213608
-0.211848
-0.097357
-0.173243
-0.147469
-0.047840
-0.130205
-0.094371
-0.175202
-0.150186
0.012670
-0.029037
-0.065439
-0.118944
-0.034185
-0.005418
0.030482
0.013230
0.036710
-0.043413
-0.104617
-0.138682
-0.192398
-0.214304
-0.241660
-0.238438
-0.313505
-0.331211
-0.400663
-0.377440
-0.261975
-0.312217
-0.333726
-0.411924
-0.243332
-0.345967
-0.317924
-0.295853
-0.144999
-0.054475
0.026628
0.029233
-0.024807
0.007745
-0.018396
0.033420
0.021803
0.006562
-0.039620
-0.159081
-0.169276
-0.209837
-0.143559
-0.214778
-0.238656
-0.102086
-0.213835
-0.312156
-0.174999
-0.153078
-0.225460
-0.190160
-0.072338
-0.107779
-0.119199
-0.135917
-0.035170
0.021418
-0.033624
-0.022136
0.020487
-0.009314
0.028256
-0.003261
0.025470
0.001735
0.003709
-0.030165
-0.012342
0.001791
0.016318
0.006930
-0.007754
-0.088015
-0.058684
0.015449
0.004559
-0.025738
-0.012009
0.022801
0.032149
-0.016884
0.015175
-0.008363
0.022656
-0.005366
-0.028390
-0.035352
-0.001338
0.010529
-0.021053
0.028099
0.016940
0.019247
0.001124
-0.106855
-0.083350
-0.078700
-0.061351
-0.124221
-0.143763
-0.111129
-0.192808
0.014704
-0.056088
-0.062951
-0.049130
-0.030803
-0.158583
-0.157405
-0.116266
-0.143092
-0.086948
-0.007144
0.025998
-0.019496
0.029968
0.016635
0.011622
0.022082
-0.107597
-0.127000
-0.012485
-0.062663
-0.116660
-0.161889
-0.205536
-0.294785
-0.311289
-0.328142
-0.372282
-0.384077
-0.135291
-0.132943
-0.006582
0.162652
-0.035394
0.048808
-0.065507
-0.168682
-0.200079
-0.021412
-0.014744
0.005796
0.009750
-0.011784
-0.023123
-0.019647
-0.132178
-0.144655
-0.164451
-0.186090
-0.359227
-0.381247
-0.407604
-0.355853
-0.230056
-0.426816
-0.624213
-0.354977
-0.305949
-0.208845
-0.023109
0.115325
0.210712
-0.000555
0.030732
0.116243
0.046085
0.008663
-0.152113
0.013905
0.020223
0.030630
-0.001264
-0.005772
0.063960
0.112023
-0.016863
-0.193373
-0.189017
-0.224593
-0.312132
-0.363534
-0.195383
-0.214492
-0.181478
-0.206352
-0.225045
-0.144448
-0.160268
-0.088736
0.028597
-0.049287
0.038686
0.047645
0.084580
0.109010
-0.018414
-0.046861
-0.077937
-0.008401
0.008212
-0.048875
0.014513
-0.001588
0.128643
-0.020558
0.095292
0.017581
-0.036291
-0.153721
-0.141502
-0.118248
-0.227371
-0.143335
-0.115402
-0.033359
-0.034887
-0.072782
-0.075987
0.000979
-0.056488
0.097198
0.181768
0.087734
-0.059415
-0.151823
-0.072949
-0.020867
0.027127
0.227269
0.009574
0.048854
0.104051
0.081916
0.113210
0.069023
0.060436
-0.064017
-0.060383
-0.083537
-0.087109
-0.073086
-0.138188
-0.158733
-0.085366
-0.049541
-0.010125
0.016426
-0.009476
0.080610
0.109410
-0.017646
-0.098933
-0.024980
0.001244
-0.028177
0.147885
0.282331
0.107168
0.094803
0.205077
0.188488
0.148460
0.135372
0.042465
-0.019582
-0.073142
-0.087994
-0.032743
-0.059176
-0.044789
0.006931
0.053313
0.048368
0.031117
0.038947
0.028631
0.063325
0.138237
0.072875
0.197477
0.143869
-0.012088
-0.008887
-0.058055
0.144279
0.128711
0.132916
0.039072
0.108664
0.168464
0.045638
-0.007214
-0.012277
-0.036898
0.063740
0.080128
0.053047
0.082997
0.042088
0.068706
0.168734
0.147436
0.134707
0.157381
0.150542
0.133451
0.154253
0.260366
0.008569
-0.070069
0.031623
0.070644
0.218996
-0.020213
0.076570
-0.046667
0.073535
0.048378
-0.020377
0.028101
-0.030612
0.074166
0.185540
0.055477
0.032361
0.007587
0.021209
0.063272
0.161526
0.181512
0.170727
0.224971
0.118089
0.116797
0.047283
0.113631
0.054171
0.049040
0.006685
0.061494
0.064785
0.143764
0.123865
-0.003307
0.058034
0.043754
0.022732
0.047697
-0.008092
0.021458
0.032305
-0.014245
-0.100433
-0.020142
-0.075601
-0.013203
0.044894
0.104235
0.084713
0.141769
0.038581
-0.079234
-0.092769
0.096457
0.022271
0.091613
0.030862
0.046531
-0.008129
0.075284
0.173495
0.099637
0.068663
0.013458
-0.077009
-0.018455
-0.008739
-0.075685
-0.086130
-0.229306
-0.239211
-0.031506
-0.084898
-0.087370
-0.113632
-0.025192
-0.071787
-0.131352
-0.109663
-0.212192
-0.276093
0.083444
0.076010
0.071121
0.007343
0.081232
0.027964
-0.062158
0.078019
0.024734
0.078499
0.052348
-0.018954
-0.006747
0.100472
0.016669
0.029626
-0.096754
-0.182871
-0.051402
-0.033830
-0.087845
-0.066366
-0.094729
-0.138089
-0.110742
-0.083323
-0.234460
-0.347741
-0.144518
0.002372
-0.096249
-0.012488
0.032990
0.066196
-0.101590
0.144062
0.226530
0.235760
0.084340
0.065720
0.138710
0.134987
0.122206
0.073643
-0.063978
-0.047330
0.016205
-0.049736
0.016309
-0.042171
-0.075840
0.022372
0.109847
0.012736
-0.121741
-0.176484
-0.092492
-0.104119
-0.064256
0.122054
0.072540
0.085505
-0.039813
0.254417
0.293272
0.218545
0.214794
0.236899
0.240036
0.188395
0.176665
0.147477
0.016149
0.035578
0.039981
0.112145
0.172104
0.003492
0.018437
0.035847
0.016306
0.067547
0.083011
0.020252
-0.084201
-0.216178
-0.098348
0.113373
0.046528
0.132149
0.147475
0.162576
0.185075
0.201411
0.285788
0.423788
0.404489
0.380900
0.377272
0.228716
0.104007
0.120739
0.077628
0.139415
0.119098
0.036719
-0.023647
-0.003869
0.104662
0.219583
0.124231
-0.121059
-0.184468
0.097313
0.015983
-0.012588
0.032331
-0.076306
0.065180
-0.075083
0.086989
0.227061
0.253050
0.364422
0.371158
0.361998
0.330818
0.382465
0.230475
0.118663
0.156828
0.098400
0.189909
0.078613
0.026704
-0.002620
0.275018
0.174630
0.094947
-0.070148
-0.150414
-0.183874
0.004316
-0.024736
0.039760
0.081655
-0.066874
-0.065938
0.012225
0.094266
0.145843
0.086747
0.068707
0.119226
0.220623
0.238950
0.232027
0.192819
0.222398
0.151195
0.160588
0.094940
-0.040723
0.019660
0.124180
0.123801
0.072369
-0.043052
-0.074967
-0.159764
-0.141556
-0.119532
0.014084
0.113431
-0.126847
-0.166987
-0.113661
-0.120111
-0.190112
-0.232540
-0.309910
-0.215692
-0.099976
-0.028822
0.033075
0.002280
0.047738
0.058762
-0.016149
-0.096171
-0.152142
0.021066
0.106449
0.004967
-0.030474
-0.138269
-0.236701
-0.036282
-0.112179
0.025101
-0.118183
0.133217
-0.133617
-0.251322
-0.247203
-0.320549
-0.440203
-0.580374
-0.619277
-0.587078
-0.543321
-0.419966
-0.208061
-0.038773
0.006785
0.027451
-0.012085
-0.050374
-0.080397
-0.035498
0.063238
-0.032624
-0.091961
-0.133676
-0.241392
0.123350
-0.057422
0.006399
-0.042517
0.139574
-0.076104
-0.367492
-0.509976
-0.359797
-0.564209
-0.605086
-0.601807
-0.516141
-0.413847
-0.381612
-0.273278
-0.110267
-0.014333
-0.013720
0.034669
-0.000525
-0.082691
-0.013485
0.061574
0.013496
-0.028166
-0.022705
-0.321049
0.119299
0.013095
-0.016416
0.016294
0.187212
-0.039738
-0.182461
-0.302176
-0.391312
-0.273324
-0.273639
-0.235300
-0.224003
-0.154599
-0.059242
-0.091549
-0.142936
-0.034869
0.016990
-0.029362
-0.024487
-0.002499
-0.040947
0.014935
0.048768
0.115175
0.091994
-0.124068
0.035604
-0.008552
-0.011251
-0.026938
0.130132
0.120766
0.030917
-0.230965
-0.199859
-0.088443
0.078483
0.018277
0.023341
0.099336
0.005817
-0.021965
0.000395
0.005674
-0.041887
0.028566
-0.014375
-0.081349
-0.022550
0.006652
0.094805
0.076467
0.141576
0.016259
0.081964
-0.018252
0.007212
-0.029794
0.092536
0.196938
0.174202
0.079261
0.085342
0.228888
0.121089
0.122392
0.163625
0.146038
0.071169
0.040126
0.074459
0.061781
0.039052
0.039714
-0.042299
-0.085092
-0.010301
-0.010578
-0.047591
-0.129629
-0.131293
-0.041913
0.093100
0.022968
-0.005440
-0.019832
0.021900
0.221817
0.201289
0.135757
0.169175
0.178052
0.150451
0.166027
0.146334
0.188811
0.073011
0.069336
0.088430
0.096971
0.107994
0.091657
0.010255
-0.044903
-0.039118
0.023002
0.026439
-0.127916
-0.260824
-0.095680
-0.071326
-0.035280
-0.029719
0.010785
-0.102154
-0.054359
0.215728
0.158050
0.114662
0.039775
0.078521
0.129596
0.108152
0.074495
0.081093
0.111455
0.102453
0.137898
0.100028
0.024949
0.044224
0.093471
-0.009229
-0.032922
0.042823
0.029423
-0.030733
-0.045050
-0.055394
-0.034383
-0.006733
0.017343
-0.008656
-0.098768
-0.175614
-0.100642
-0.121472
-0.250493
-0.272633
-0.205018
-0.161127
-0.065108
-0.183173
-0.047742
-0.088089
0.030681
-0.020379
-0.141833
-0.240475
-0.064490
-0.081606
-0.099019
-0.065558
-0.093924
-0.024108
0.036537
0.019289
0.014578
0.020679
-0.027435
-0.000426
-0.015257
0.037490
0.001138
-0.106816
-0.108455
-0.146392
-0.147663
-0.134697
-0.194744
-0.174305
-0.042535
-0.259752
-0.124789
-0.137181
-0.068628
-0.186288
-0.108868
-0.050320
0.007838
0.075648
0.114380
0.030695
0.033605
0.026094
0.013839
0.023752
0.015252
-0.033271
0.025992
0.004336
-0.008906
-0.010621
0.028488
0.024922
-0.003318
-0.013351
-0.019201
-0.012803
-0.059758
-0.015308
-0.014101
0.010370
0.027378
0.007138
0.013312
-0.028845
-0.025949
-0.020917
-0.022854
-0.015942
-0.021652
-0.011686
-0.022109
0.010638
0.000922
0.001817
0.015142
-0.031617
-0.004766
0.039245
0.011183
0.062215
-0.009877
0.054597
-0.028956
-0.035666
-0.081154
-0.074921
-0.135238
-0.011058
-0.002141
-0.018292
-0.003298
0.119587
0.032529
0.052590
0.088045
-0.028348
0.003210
-0.008486
0.022710
-0.014300
0.025383
-0.008213
-0.119694
-0.136095
0.038149
0.035940
0.041191
0.156253
0.219164
0.230609
0.141525
0.148906
0.197381
0.215896
0.120499
0.003141
0.023066
0.006149
-0.001755
0.114252
0.090385
0.085601
0.143051
0.045311
-0.015317
-0.018990
0.019347
0.001796
-0.025366
-0.105166
-0.113504
0.050695
0.066541
0.022607
0.109890
0.142007
0.186547
0.183070
0.153336
-0.040828
-0.030430
-0.010789
-0.048337
-0.049807
-0.101003
-0.057196
-0.069103
-0.071550
0.088852
0.126048
0.059087
0.034367
-0.060314
0.096461
-0.024335
0.022992
-0.000823
-0.167233
-0.189597
0.007986
0.034842
0.097454
0.003723
0.042796
0.170656
0.224578
0.095237
0.105153
0.047337
-0.009180
-0.151976
-0.036480
-0.075904
-0.027640
-0.007876
-0.032340
0.058014
-0.004498
0.082901
0.075590
0.046463
-0.093987
-0.024625
0.029261
-0.018925
-0.108670
0.032350
0.148723
0.087899
0.020489
-0.099948
0.000108
-0.008271
-0.004490
-0.106457
-0.144301
-0.123457
-0.043578
-0.032561
0.050291
0.003722
-0.047496
-0.019602
0.075055
0.045049
0.013366
0.035519
0.002512
0.133768
-0.001829
-0.002997
0.030914
-0.060216
-0.097044
-0.151621
0.040389
-0.124031
-0.194551
-0.093306
-0.204615
-0.131456
-0.151854
-0.176562
-0.094661
-0.184879
-0.082852
-0.079729
-0.041334
0.002406
-0.062728
-0.065136
-0.017391
-0.152046
-0.112800
-0.116375
0.014201
0.161080
0.119886
0.006000
0.010719
-0.109167
-0.034333
-0.207564
-0.166907
-0.275909
-0.199699
-0.102480
-0.146072
-0.171918
-0.103858
-0.010341
-0.157613
-0.114985
-0.028788
-0.038054
-0.035035
-0.016518
0.010334
-0.051963
-0.106329
-0.022067
-0.043884
-0.182398
-0.028714
0.129809
0.215586
0.034139
-0.046884
-0.009751
0.062667
-0.139245
-0.231107
-0.249081
-0.184551
-0.324741
-0.201819
-0.213283
-0.182160
-0.116188
-0.095269
-0.031396
-0.041786
0.019890
-0.051893
-0.040262
-0.074460
0.051468
0.020327
0.020136
-0.121865
-0.148989
-0.076739
0.099382
-0.042950
-0.098160
-0.042701
-0.167554
0.000235
-0.058652
-0.137576
-0.277425
-0.228414
-0.232156
-0.177934
-0.136785
-0.102537
-0.018362
0.024651
-0.032308
-0.073960
-0.016973
-0.075482
-0.133511
-0.087622
0.011489
0.021666
0.002777
-0.141654
-0.201357
-0.168890
-0.125456
-0.045316
-0.014045
-0.038246
-0.065969
0.000393
-0.122116
0.011684
-0.059015
-0.115513
-0.186781
-0.108506
-0.009731
0.000072
0.084697
-0.011679
-0.107874
-0.252687
-0.158487
-0.218433
-0.212030
-0.249557
-0.139616
-0.124879
-0.109605
-0.146487
-0.113892
-0.095491
0.073427
-0.002637
-0.036539
-0.042921
-0.089400
-0.074068
-0.043349
0.042022
0.142751
-0.028544
-0.126538
-0.032583
0.044949
0.067323
-0.041462
-0.104927
-0.266331
-0.341752
-0.278977
-0.117380
-0.214659
-0.115118
-0.073272
-0.125987
-0.116478
-0.121677
-0.054592
-0.173405
-0.002015
-0.242890
-0.065446
-0.020898
-0.055968
-0.093353
-0.052041
0.145782
0.112596
0.062470
-0.015022
0.079039
0.135368
0.055201
0.046087
-0.141150
-0.176409
-0.142582
-0.114163
0.025680
-0.107292
-0.044549
-0.042093
-0.006460
-0.127277
-0.128098
-0.085325
-0.091877
-0.025981
-0.159725
0.051648
-0.023148
-0.045916
-0.125067
0.025355
0.123516
0.111233
0.071047
0.069196
0.146415
0.151417
0.157149
0.133849
0.166788
0.198876
0.158339
0.208173
0.129973
0.051501
0.046057
0.058642
-0.041476
-0.109578
-0.094818
-0.090790
-0.069382
0.046748
-0.018449
0.104997
0.108292
-0.020196
-0.196466
0.170423
0.138366
0.136123
0.164057
0.161053
0.188039
0.159510
0.078866
0.154756
0.182510
0.171725
0.149762
0.195669
0.255161
0.175371
0.058480
0.004205
-0.050212
-0.131578
-0.066157
-0.098285
-0.138420
-0.030566
0.222213
0.074299
0.051738
-0.009399
0.049795
0.219938
0.029740
0.137688
0.193990
0.162794
0.215926
0.139982
0.123742
0.090834
0.078865
0.152396
0.159748
0.232183
0.346664
0.192026
0.067841
-0.027337
-0.105256
-0.120798
-0.150556
-0.102826
-0.040271
0.180254
0.156085
0.108786
-0.022576
-0.070796
-0.028066
0.307054
0.074541
0.054212
0.154206
0.080972
0.148041
0.146649
0.152154
0.182009
0.105599
0.123250
0.217106
0.231270
0.222289
0.135485
0.037935
0.028970
-0.021588
0.024485
0.023481
-0.021856
0.106335
0.309214
0.251577
0.053057
0.020339
-0.091431
-0.006175
0.093131
0.080322
0.123988
0.203044
0.195841
0.152778
0.092461
0.177835
0.193746
0.117967
0.121782
0.159311
0.190002
0.159800
0.113321
0.062066
0.033103
0.014702
0.042755
-0.012551
-0.056950
-0.003977
0.130697
0.211783
0.198914
-0.028651
-0.018634
-0.041810
0.145597
0.130693
0.138666
0.183545
0.190808
0.136726
0.058004
0.068590
0.014902
0.062436
0.098757
0.140327
0.064599
0.121054
0.052612
0.026914
0.103024
0.127972
0.051921
-0.006361
0.145631
0.163578
0.241031
0.054269
0.187479
0.025080
-0.119311
-0.117483
0.099936
0.069960
0.072341
0.078616
0.040158
-0.007984
0.042141
-0.026694
0.055926
-0.028877
0.112200
0.078805
0.101019
0.106346
0.091714
0.116331
0.148136
0.213158
0.132703
0.107128
0.124050
0.068238
0.266716
0.032779
0.081626
-0.025663
-0.103448
-0.020000
0.025169
0.112193
-0.001838
-0.136795
-0.114611
-0.068184
-0.018735
-0.038380
0.040015
-0.016143
-0.018666
0.063809
0.092891
0.080797
0.104184
0.162074
0.218471
0.164116
0.083865
0.090506
0.070864
0.028760
0.217526
0.001238
0.022080
0.002876
0.067272
-0.033227
-0.011407
0.107635
0.011651
-0.168241
-0.159550
-0.057889
-0.069738
-0.037379
-0.111265
-0.052537
-0.039186
-0.028723
-0.042180
-0.038855
-0.046260
0.039857
0.121662
0.094113
0.100294
0.118388
0.180081
0.096723
0.055811
0.063961
-0.032886
-0.008216
0.031972
0.054929
-0.015443
-0.011659
-0.090573
-0.164317
-0.155014
-0.106633
-0.108240
-0.067226
-0.129402
-0.014727
-0.100707
-0.208614
-0.201480
-0.205714
-0.198809
-0.003798
0.033377
0.139118
0.113125
0.155549
0.110648
0.139928
0.032671
0.096230
-0.015309
-0.025085
-0.033940
0.177521
0.015732
-0.001143
-0.088032
-0.152839
-0.237980
-0.163989
-0.141509
-0.139933
-0.125288
-0.102109
-0.129862
-0.112481
-0.215744
-0.275350
-0.299886
-0.159631
-0.000516
0.115064
0.130816
0.264263
0.160335
0.103554
0.028733
0.097491
0.035344
-0.000068
-0.005875
0.008857
-0.154219
0.147724
0.072062
-0.006952
-0.006935
-0.078652
-0.141636
-0.199774
-0.152629
-0.169415
-0.126809
-0.094653
-0.185355
-0.296171
-0.216162
-0.095442
0.041104
0.187851
0.240145
0.129805
0.121518
0.066829
0.145858
0.106149
-0.024056
0.034998
-0.033990
0.071716
-0.039170
0.174158
0.135543
0.079908
-0.051095
-0.024005
-0.095676
-0.034061
0.020230
-0.039287
0.080944
0.128987
0.018328
-0.001032
-0.029068
-0.120104
-0.008894
0.152117
0.115042
0.051085
0.158451
0.013817
0.066113
0.111084
-0.001171
-0.029832
-0.024680
-0.026953
0.085425
0.172205
0.196244
0.193459
0.087839
0.018619
-0.024372
0.185318
0.233865
0.203435
0.188003
0.021951
0.014729
0.006762
-0.060428
-0.117024
-0.142083
0.019916
0.040508
-0.006375
0.010585
-0.030998
0.009670
0.021384
-0.008752
-0.000081
-0.004028
-0.004197
-0.031693
-0.036365
0.022040
-0.059730
-0.061994
-0.065378
0.000671
-0.064488
0.068119
0.094437
0.017247
0.102065
-0.018104
-0.000069
-0.118964
-0.008787
0.022703
0.080285
-0.083794
-0.078643
-0.126019
0.018960
0.000626
-0.006158
0.013999
-0.015908
0.021643
-0.029913
-0.025602
0.034026
-0.013458
-0.028398
-0.026108
0.034632
-0.004995
-0.030053
-0.005148
-0.084167
-0.087853
-0.009064
0.035091
0.014406
0.020867
0.002948
-0.014931
-0.014576
-0.023970
-0.025803
-0.030793
0.006345
0.018740
0.029144
-0.000907
-0.005204
-0.002969
0.014071
-0.005657
-0.016367
-0.024617
-0.099211
-0.096967
-0.101748
-0.051307
-0.103332
-0.096752
-0.159434
-0.094743
-0.125322
-0.117138
-0.030167
-0.108611
-0.163475
-0.220782
-0.218964
-0.092989
-0.082899
-0.057036
0.022362
0.007997
-0.013799
-0.013909
-0.010609
-0.033367
0.017842
-0.125030
-0.146430
-0.008524
-0.072378
-0.102811
-0.099370
-0.021352
-0.196052
-0.152804
-0.149923
-0.159321
-0.136283
-0.086488
0.001538
-0.046789
-0.079237
-0.151573
-0.078943
-0.008321
-0.142540
-0.165296
0.007291
0.021732
0.020044
-0.030945
0.007720
-0.016164
-0.094756
-0.122311
-0.192531
0.086179
-0.087000
-0.092709
-0.121744
-0.101649
-0.051726
0.197453
0.079752
-0.060199
-0.075217
-0.120599
0.021874
0.071521
0.104952
-0.053137
-0.156737
-0.183436
-0.106232
-0.053928
0.051023
0.149094
0.070612
0.026097
0.014815
-0.023683
-0.099497
-0.001178
0.072449
0.240433
0.103364
0.053839
0.156503
0.052004
0.080354
0.054294
0.106680
0.113124
0.073013
-0.027205
0.048315
-0.052540
-0.017446
0.005254
-0.055902
-0.097061
-0.104488
-0.127887
0.086651
0.037415
0.016605
0.078039
-0.010240
-0.002954
-0.058013
0.102630
0.199856
0.312271
0.219736
0.135074
0.123709
-0.014995
0.026931
0.076820
0.077491
0.021182
0.036917
0.101029
0.048409
0.035276
-0.000192
-0.014148
-0.007035
-0.045545
-0.073311
-0.146861
-0.090935
0.163448
-0.008576
0.226379
-0.021644
-0.007567
-0.079068
-0.025905
0.055427
0.082796
0.076076
0.080653
0.045950
0.043466
-0.064713
-0.042594
-0.001569
0.065587
0.029786
0.145826
0.061942
0.050648
0.059793
-0.058434
-0.099521
-0.067011
-0.077846
-0.058034
-0.216668
0.052849
-0.084481
-0.063103
0.022421
-0.039283
-0.072034
0.057186
0.152345
0.092797
0.111487
0.060746
0.120005
-0.043869
-0.086178
-0.036654
-0.038439
0.050608
0.009479
0.099332
0.041940
0.037668
0.000820
-0.002950
-0.068389
-0.023720
-0.029197
-0.122230
-0.042740
0.005245
-0.017898
-0.123014
-0.041062
-0.108508
0.033151
0.060153
0.064136
-0.029509
-0.003538
0.041582
-0.004811
-0.054630
-0.087758
-0.079312
-0.035989
0.009299
-0.000790
-0.000307
0.092918
-0.030949
0.045862
0.014087
0.017613
0.035242
0.023830
-0.117319
-0.131004
0.044161
0.112591
-0.083774
-0.005072
0.040003
0.048060
0.085091
-0.065498
0.064721
0.044192
-0.013131
-0.109900
-0.060920
-0.085717
-0.167435
-0.053673
-0.056920
-0.058816
0.028533
0.042239
0.092748
0.099269
0.134557
0.194391
0.112985
0.022256
-0.024943
-0.241432
-0.173296
-0.080531
-0.030230
-0.002126
-0.040245
-0.046151
0.142847
-0.079466
0.031181
0.022396
-0.056619
-0.135558
-0.113697
-0.069324
-0.077452
-0.058566
-0.114968
-0.094995
-0.032625
0.058797
0.142976
0.195840
0.180045
0.203860
0.143146
0.058682
-0.143567
-0.355886
-0.284230
-0.193558
0.098739
0.017042
-0.074471
-0.147900
0.075318
-0.127248
0.021247
-0.023984
-0.113893
-0.002830
-0.030465
0.034615
0.051871
-0.106621
-0.130792
-0.051269
-0.010953
0.024962
0.120385
0.109737
0.141148
0.165790
0.039628
0.071730
-0.120256
-0.313899
-0.267336
-0.101886
-0.039331
-0.019891
-0.083525
-0.122385
-0.036852
-0.055498
-0.044427
-0.061059
-0.048347
0.031352
0.071214
0.076431
0.031703
-0.095882
-0.059633
0.020603
0.064801
0.067792
0.082823
0.102495
0.228569
0.100512
0.109066
0.088291
0.096689
0.014257
0.018642
0.072494
-0.045077
0.005320
-0.074366
-0.186053
0.030386
-0.014700
-0.030782
0.032718
-0.051278
0.085831
0.101264
0.047558
0.026680
-0.047040
0.087541
0.108184
0.138648
0.071532
0.077849
0.150514
0.190610
0.167767
0.014493
-0.101565
-0.189106
-0.032500
0.148255
0.121853
-0.105754
-0.088333
-0.002561
-0.208275
0.080030
0.090409
-0.009366
0.079249
0.041139
0.001960
0.022789
-0.088774
-0.065258
0.011632
0.164818
0.079044
0.180921
0.163044
0.123283
0.143541
0.133617
0.068180
-0.016588
-0.109857
-0.341839
-0.234822
-0.019187
0.003067
-0.043874
-0.086099
0.014902
-0.153813
0.105016
0.095639
0.042529
0.031930
0.017858
0.008271
-0.050406
-0.058023
0.043108
0.063714
0.151015
0.091444
0.152427
0.258792
0.149109
0.078797
0.101374
0.032061
-0.074420
0.031028
-0.157568
-0.304261
-0.078832
0.188360
0.074455
0.013147
0.006715
0.006605
0.153701
0.048161
0.055200
0.029643
-0.012492
0.037817
0.047603
0.013334
0.041530
0.146476
0.108353
-0.012499
0.130817
0.192152
0.140692
0.106888
0.060869
-0.034490
-0.033024
-0.005708
-0.027873
-0.109507
0.009565
0.009540
0.094018
-0.020802
-0.005795
0.168839
0.040901
0.035803
0.072567
0.055221
0.159328
0.130982
0.061600
-0.053171
0.000165
0.115803
0.108907
-0.018665
0.114457
0.119948
0.048485
-0.018180
-0.017979
-0.039884
-0.031706
-0.053550
-0.063300
-0.112245
-0.128443
-0.001262
0.063985
-0.116874
0.020317
-0.010074
0.137131
0.094043
0.123011
0.199172
0.127387
0.115306
0.004497
-0.074250
-0.018160
0.023903
0.004250
0.039904
0.131465
0.125790
-0.027594
-0.073509
-0.058302
-0.007064
-0.040554
-0.022110
-0.011150
-0.088259
-0.036617
-0.091107
-0.046058
-0.012510
-0.187642
-0.121865
0.077991
0.042001
0.095831
0.107250
0.092863
0.048350
-0.067519
-0.051079
-0.108449
-0.059826
0.021833
0.044466
0.044230
-0.015000
-0.004987
-0.046113
-0.071111
-0.050389
0.018522
-0.016193
0.001433
-0.016026
0.028976
0.024167
-0.135687
0.033506
-0.079034
-0.135423
0.181712
0.074657
0.001991
0.099653
0.021865
-0.056856
-0.073821
-0.175595
-0.221009
-0.104415
-0.021679
0.019638
-0.047940
-0.035244
0.002163
-0.052746
-0.145845
0.013672
0.026023
0.057383
0.031617
0.002930
0.145911
-0.025488
-0.003446
0.004883
-0.025780
0.118239
0.063793
-0.005678
-0.123429
-0.034144
-0.041867
-0.006877
-0.029777
-0.178264
-0.079189
-0.030243
-0.009894
-0.100156
-0.045783
0.025283
-0.030457
0.002381
-0.049540
-0.025285
-0.025000
0.077079
0.096802
0.054317
0.123430
0.021550
0.034900
-0.050736
-0.010869
0.125363
0.035036
-0.004591
-0.190465
-0.076300
0.050226
0.066857
-0.012738
0.002923
0.027150
-0.027838
-0.024738
-0.052768
-0.026325
-0.067239
-0.119517
-0.026594
-0.015017
0.061421
0.109399
0.112093
0.106378
0.245265
0.148051
-0.169907
0.016622
-0.015750
-0.017925
0.112381
0.151801
0.039936
-0.200895
-0.215997
0.078779
0.061162
0.037993
0.035213
0.041437
-0.031368
0.030830
0.005828
-0.078398
-0.087158
-0.071704
0.101986
0.078521
0.059293
0.179715
0.155599
0.247210
0.238468
0.220885
-0.165582
-0.029842
-0.026694
0.007849
-0.015485
0.076213
0.142492
-0.054665
-0.045699
0.031065
0.021166
-0.030953
0.005941
0.046226
-0.060456
-0.024639
-0.052677
-0.008238
0.087614
0.023449
-0.011060
-0.002708
0.160703
0.145012
0.209950
0.385064
0.158807
0.063170
-0.076780
0.014408
0.012784
0.015112
0.115024
-0.144772
-0.056380
0.157390
0.139198
0.105555
0.112916
-0.111199
0.077237
0.002782
-0.050879
-0.008340
0.033833
-0.016511
-0.032430
-0.062277
-0.121133
-0.053704
0.172319
0.076972
0.062741
0.190265
-0.019193
-0.024555
-0.113641
-0.023831
0.011228
-0.001493
-0.030516
0.089247
0.154883
0.104933
0.096242
0.101715
0.085174
0.066686
0.132055
-0.045734
-0.005452
0.007757
0.081579
-0.010738
-0.011762
0.020525
0.004156
-0.077714
0.065064
0.073536
0.036868
0.023776
0.017126
-0.038152
-0.023068
0.031811
-0.007645
-0.000654
-0.007578
-0.018235
0.000983
-0.043597
-0.003160
0.076401
0.030387
0.019849
-0.125439
-0.011361
0.055938
-0.165266
0.028334
0.066365
0.012360
-0.039658
0.018883
0.038685
0.021216
-0.084924
-0.112653
-0.152594
0.004196
-0.023959
-0.028402
0.007657
-0.031262
-0.019434
-0.023104
0.017433
0.032745
0.012496
-0.019988
0.027032
0.033150
-0.009677
0.026354
0.009029
0.029147
0.043928
-0.020079
0.018858
0.019750
-0.035128
-0.014597
0.000774
0.028598
-0.019460
-0.002098
-0.001010
-0.017960
-0.016008
-0.009556
-0.010672
-0.011496
0.003415
-0.002986
-0.017381
0.023180
0.040875
0.067486
0.070391
0.053388
0.040390
0.086434
0.041090
0.088365
0.045394
-0.143083
-0.019430
0.137806
0.123498
0.083833
0.156101
0.180244
0.084417
0.141037
0.069795
-0.007613
-0.035379
-0.012687
-0.035028
0.012643
-0.027492
-0.014461
0.008605
0.071952
0.005028
0.112183
0.117982
0.246823
0.281011
0.264331
0.273178
0.257150
0.308896
0.314823
0.232660
0.156412
0.130860
0.207756
0.261576
0.221390
0.108421
0.150281
0.153155
0.037210
0.020641
-0.006639
0.014363
0.026947
0.027648
-0.113276
0.087847
0.107297
0.160154
0.213195
0.325581
0.398725
0.328339
0.293848
0.144155
0.190259
0.285521
0.203826
0.181521
-0.007374
-0.059167
0.023756
0.053829
0.201018
0.291148
0.210210
0.222908
0.132604
-0.058209
-0.003266
0.031323
0.011399
-0.006588
-0.107777
0.017645
0.009943
0.065202
0.223898
0.153611
0.013108
0.152158
0.172793
0.000052
0.007865
0.047994
0.160332
0.064341
0.047547
0.106778
0.067764
0.047643
0.029490
0.110272
0.126812
0.054587
0.019954
0.086192
0.058184
0.063684
0.002066
0.016961
-0.084926
-0.074924
0.016041
0.034792
0.139270
0.052870
0.062607
0.053229
0.059986
-0.064472
-0.016636
0.095263
0.112651
0.093620
0.126015
0.090288
-0.041916
-0.128639
-0.100053
-0.086258
-0.195566
-0.243316
-0.043383
0.168137
0.203969
0.026984
-0.012784
-0.001486
-0.086609
0.160674
0.124326
0.054087
0.116563
0.109977
0.082037
0.062605
0.052520
0.053057
0.035387
-0.067995
-0.153210
-0.077920
-0.046290
-0.140799
-0.179091
-0.260630
-0.322726
-0.321187
-0.450846
-0.400422
0.042776
0.013847
-0.063042
0.006599
-0.005043
0.173095
0.005644
0.140045
0.182141
-0.005542
0.089454
0.028254
-0.004895
-0.065278
-0.065339
-0.084276
-0.084274
-0.275951
-0.277675
-0.314096
-0.310545
-0.379758
-0.286375
-0.371057
-0.455943
-0.450755
-0.534370
-0.436180
-0.194537
-0.280219
-0.298597
0.112883
-0.007497
0.190952
-0.050024
0.104917
0.232022
0.194371
0.028538
0.030018
0.144400
0.016079
-0.030609
-0.081636
-0.184961
-0.257972
-0.239344
-0.433537
-0.389312
-0.340876
-0.393493
-0.249906
-0.274279
-0.332986
-0.261325
-0.332547
-0.236260
-0.349946
-0.165162
0.099504
0.000785
0.105568
0.036687
0.029191
0.339208
0.223441
0.179168
0.130438
0.150274
0.097022
-0.062138
-0.080016
-0.008766
-0.022207
0.040361
-0.127223
-0.173031
-0.077759
-0.222752
-0.174727
-0.082262
-0.109449
-0.121679
-0.172257
-0.101012
0.085977
0.094491
0.005335
-0.000352
0.056063
0.040958
0.035742
0.280088
0.196874
0.157998
0.127165
0.130700
0.026022
0.048595
0.021965
0.112341
0.256447
0.284576
0.122009
0.165281
0.055616
-0.014655
0.016139
0.058819
0.043857
-0.028892
0.145642
0.197894
0.157405
0.226936
-0.172436
0.036371
0.132291
0.137397
0.114815
0.272034
0.200799
0.063713
0.118707
0.088323
-0.036671
-0.024107
-0.003987
0.102775
0.162055
0.191279
0.108510
0.232663
0.172602
0.222625
0.172712
0.112233
0.120760
0.174902
0.361934
0.482368
0.412152
0.210127
-0.047904
0.029996
0.094829
0.108549
